<?xml version="1.0"?>
<opencv_storage>
<cascade>
  <stageType>BOOST</stageType>
  <featureType>HAAR</featureType>
  <height>37</height>
  <width>36</width>
  <stageParams>
    <boostType>GAB</boostType>
    <minHitRate>9.8000001907348633e-001</minHitRate>
    <maxFalseAlarm>5.0000000000000000e-001</maxFalseAlarm>
    <weightTrimRate>9.4999999999999996e-001</weightTrimRate>
    <maxDepth>1</maxDepth>
    <maxWeakCount>100</maxWeakCount></stageParams>
  <featureParams>
    <maxCatCount>0</maxCatCount>
    <featSize>1</featSize>
    <mode>ALL</mode></featureParams>
  <stageNum>20</stageNum>
  <stages>
    <!-- stage 0 -->
    <_>
      <maxWeakCount>5</maxWeakCount>
      <stageThreshold>-1.8001739680767059e-001</stageThreshold>
      <weakClassifiers>
        <_>
          <internalNodes>
            0 -1 10 -4.2301785945892334e-001</internalNodes>
          <leafValues>
            -8.2178217172622681e-001 5.9249329566955566e-001</leafValues></_>
        <_>
          <internalNodes>
            0 -1 37 1.4143469929695129e-001</internalNodes>
          <leafValues>
            4.0754720568656921e-001 -5.0989693403244019e-001</leafValues></_>
        <_>
          <internalNodes>
            0 -1 285 1.1692179366946220e-002</internalNodes>
          <leafValues>
            -3.0330446362495422e-001 6.4664971828460693e-001</leafValues></_>
        <_>
          <internalNodes>
            0 -1 272 -1.4826280996203423e-002</internalNodes>
          <leafValues>
            7.3707109689712524e-001 -2.9710498452186584e-001</leafValues></_>
        <_>
          <internalNodes>
            0 -1 244 6.7638810724020004e-003</internalNodes>
          <leafValues>
            -1.9954904913902283e-001 6.8249219655990601e-001</leafValues></_></weakClassifiers></_>
    <!-- stage 1 -->
    <_>
      <maxWeakCount>7</maxWeakCount>
      <stageThreshold>-2.1277187764644623e-001</stageThreshold>
      <weakClassifiers>
        <_>
          <internalNodes>
            0 -1 315 -2.8575561009347439e-004</internalNodes>
          <leafValues>
            -7.9652607440948486e-001 5.8990395069122314e-001</leafValues></_>
        <_>
          <internalNodes>
            0 -1 315 1.8637953326106071e-004</internalNodes>
          <leafValues>
            3.5124373435974121e-001 -8.0337798595428467e-001</leafValues></_>
        <_>
          <internalNodes>
            0 -1 282 2.7265628799796104e-002</internalNodes>
          <leafValues>
            -2.9026541113853455e-001 6.0304206609725952e-001</leafValues></_>
        <_>
          <internalNodes>
            0 -1 271 -2.7993692085146904e-002</internalNodes>
          <leafValues>
            7.5191628932952881e-001 -2.0740336179733276e-001</leafValues></_>
        <_>
          <internalNodes>
            0 -1 310 1.7735589062795043e-004</internalNodes>
          <leafValues>
            2.1946780383586884e-001 -7.2922039031982422e-001</leafValues></_>
        <_>
          <internalNodes>
            0 -1 26 2.0908715669065714e-004</internalNodes>
          <leafValues>
            1.3447406888008118e-001 -8.3073884248733521e-001</leafValues></_>
        <_>
          <internalNodes>
            0 -1 26 -1.9186333520337939e-004</internalNodes>
          <leafValues>
            -7.8105181455612183e-001 1.4442902803421021e-001</leafValues></_></weakClassifiers></_>
    <!-- stage 2 -->
    <_>
      <maxWeakCount>10</maxWeakCount>
      <stageThreshold>-1.9943948090076447e-001</stageThreshold>
      <weakClassifiers>
        <_>
          <internalNodes>
            0 -1 20 2.3088209854904562e-004</internalNodes>
          <leafValues>
            5.5864810943603516e-001 -5.9206801652908325e-001</leafValues></_>
        <_>
          <internalNodes>
            0 -1 8 -3.2050441950559616e-002</internalNodes>
          <leafValues>
            7.0149296522140503e-001 -1.2926907837390900e-001</leafValues></_>
        <_>
          <internalNodes>
            0 -1 9 3.1764708459377289e-002</internalNodes>
          <leafValues>
            -2.9520070552825928e-001 7.3525422811508179e-001</leafValues></_>
        <_>
          <internalNodes>
            0 -1 293 1.6867972910404205e-002</internalNodes>
          <leafValues>
            -1.4755049347877502e-001 6.9765281677246094e-001</leafValues></_>
        <_>
          <internalNodes>
            0 -1 157 -4.9135863780975342e-002</internalNodes>
          <leafValues>
            7.0843720436096191e-001 -1.5819507837295532e-001</leafValues></_>
        <_>
          <internalNodes>
            0 -1 161 4.1832588613033295e-002</internalNodes>
          <leafValues>
            -2.6445677876472473e-001 7.0918995141983032e-001</leafValues></_>
        <_>
          <internalNodes>
            0 -1 22 2.6127131422981620e-004</internalNodes>
          <leafValues>
            2.0171442627906799e-001 -8.1038123369216919e-001</leafValues></_>
        <_>
          <internalNodes>
            0 -1 174 -1.9950918853282928e-002</internalNodes>
          <leafValues>
            6.3051211833953857e-001 -2.0342706143856049e-001</leafValues></_>
        <_>
          <internalNodes>
            0 -1 4 -3.5295501351356506e-002</internalNodes>
          <leafValues>
            5.0846219062805176e-001 -2.0963837206363678e-001</leafValues></_>
        <_>
          <internalNodes>
            0 -1 277 -2.5182161480188370e-002</internalNodes>
          <leafValues>
            6.2915593385696411e-001 -2.0575709640979767e-001</leafValues></_></weakClassifiers></_>
    <!-- stage 3 -->
    <_>
      <maxWeakCount>11</maxWeakCount>
      <stageThreshold>-1.1325898766517639e-001</stageThreshold>
      <weakClassifiers>
        <_>
          <internalNodes>
            0 -1 3 -4.5233440399169922e-001</internalNodes>
          <leafValues>
            -7.2131145000457764e-001 6.0837888717651367e-001</leafValues></_>
        <_>
          <internalNodes>
            0 -1 63 1.3462357223033905e-002</internalNodes>
          <leafValues>
            -1.7773976922035217e-001 6.4064007997512817e-001</leafValues></_>
        <_>
          <internalNodes>
            0 -1 83 -2.2123742848634720e-002</internalNodes>
          <leafValues>
            6.3753926753997803e-001 -1.5997914969921112e-001</leafValues></_>
        <_>
          <internalNodes>
            0 -1 226 -5.4789155721664429e-002</internalNodes>
          <leafValues>
            7.4247610569000244e-001 -1.4716090261936188e-001</leafValues></_>
        <_>
          <internalNodes>
            0 -1 193 -4.4743485748767853e-002</internalNodes>
          <leafValues>
            6.5689498186111450e-001 -2.1958337724208832e-001</leafValues></_>
        <_>
          <internalNodes>
            0 -1 176 -1.6829162836074829e-002</internalNodes>
          <leafValues>
            7.4086278676986694e-001 -1.1183203756809235e-001</leafValues></_>
        <_>
          <internalNodes>
            0 -1 120 -3.5908818244934082e-002</internalNodes>
          <leafValues>
            7.2468084096908569e-001 -1.1512602865695953e-001</leafValues></_>
        <_>
          <internalNodes>
            0 -1 134 1.2825488112866879e-002</internalNodes>
          <leafValues>
            -2.1487997472286224e-001 4.6769440174102783e-001</leafValues></_>
        <_>
          <internalNodes>
            0 -1 167 -2.0489819871727377e-004</internalNodes>
          <leafValues>
            -8.1153774261474609e-001 1.2255258858203888e-001</leafValues></_>
        <_>
          <internalNodes>
            0 -1 224 -3.0543457716703415e-002</internalNodes>
          <leafValues>
            6.7147958278656006e-001 -1.6676159203052521e-001</leafValues></_>
        <_>
          <internalNodes>
            0 -1 261 -2.8042960911989212e-002</internalNodes>
          <leafValues>
            6.6494113206863403e-001 -1.5609005093574524e-001</leafValues></_></weakClassifiers></_>
    <!-- stage 4 -->
    <_>
      <maxWeakCount>10</maxWeakCount>
      <stageThreshold>-1.0678867250680923e-001</stageThreshold>
      <weakClassifiers>
        <_>
          <internalNodes>
            0 -1 185 4.7758041182532907e-004</internalNodes>
          <leafValues>
            5.5077868700027466e-001 -5.9501558542251587e-001</leafValues></_>
        <_>
          <internalNodes>
            0 -1 67 -2.8348084539175034e-002</internalNodes>
          <leafValues>
            6.2014728784561157e-001 -1.1529450863599777e-001</leafValues></_>
        <_>
          <internalNodes>
            0 -1 88 3.5325005650520325e-002</internalNodes>
          <leafValues>
            -1.9746929407119751e-001 6.2527745962142944e-001</leafValues></_>
        <_>
          <internalNodes>
            0 -1 52 4.5308612287044525e-002</internalNodes>
          <leafValues>
            -1.5066702663898468e-001 5.6877130270004272e-001</leafValues></_>
        <_>
          <internalNodes>
            0 -1 15 5.0358332693576813e-002</internalNodes>
          <leafValues>
            -1.5584993362426758e-001 5.8991760015487671e-001</leafValues></_>
        <_>
          <internalNodes>
            0 -1 18 -3.3131517469882965e-002</internalNodes>
          <leafValues>
            4.7175073623657227e-001 -2.9508718848228455e-001</leafValues></_>
        <_>
          <internalNodes>
            0 -1 145 -2.3563921451568604e-002</internalNodes>
          <leafValues>
            6.3823938369750977e-001 -1.3070932030677795e-001</leafValues></_>
        <_>
          <internalNodes>
            0 -1 80 -1.0962245054543018e-002</internalNodes>
          <leafValues>
            5.6207025051116943e-001 -1.9509541988372803e-001</leafValues></_>
        <_>
          <internalNodes>
            0 -1 184 -1.8639954214449972e-004</internalNodes>
          <leafValues>
            -7.0890861749649048e-001 1.5489472448825836e-001</leafValues></_>
        <_>
          <internalNodes>
            0 -1 214 -1.1398175731301308e-002</internalNodes>
          <leafValues>
            4.2771059274673462e-001 -2.1915942430496216e-001</leafValues></_></weakClassifiers></_>
    <!-- stage 5 -->
    <_>
      <maxWeakCount>13</maxWeakCount>
      <stageThreshold>-2.4825748801231384e-001</stageThreshold>
      <weakClassifiers>
        <_>
          <internalNodes>
            0 -1 32 2.8995144367218018e-001</internalNodes>
          <leafValues>
            5.6776559352874756e-001 -3.1250000000000000e-001</leafValues></_>
        <_>
          <internalNodes>
            0 -1 167 2.2082134091760963e-004</internalNodes>
          <leafValues>
            1.7339920997619629e-001 -7.1844041347503662e-001</leafValues></_>
        <_>
          <internalNodes>
            0 -1 182 2.6417397893965244e-003</internalNodes>
          <leafValues>
            -1.6903010010719299e-001 4.9948495626449585e-001</leafValues></_>
        <_>
          <internalNodes>
            0 -1 158 -8.6055859923362732e-002</internalNodes>
          <leafValues>
            6.2367957830429077e-001 -1.4070895314216614e-001</leafValues></_>
        <_>
          <internalNodes>
            0 -1 155 4.0666319429874420e-002</internalNodes>
          <leafValues>
            -1.5507952868938446e-001 6.0756677389144897e-001</leafValues></_>
        <_>
          <internalNodes>
            0 -1 207 -1.0159650817513466e-002</internalNodes>
          <leafValues>
            4.3217921257019043e-001 -1.9683982431888580e-001</leafValues></_>
        <_>
          <internalNodes>
            0 -1 283 -5.5032670497894287e-002</internalNodes>
          <leafValues>
            6.5727639198303223e-001 -1.3748209178447723e-001</leafValues></_>
        <_>
          <internalNodes>
            0 -1 312 2.3548683384433389e-004</internalNodes>
          <leafValues>
            1.1241279542446136e-001 -8.0358201265335083e-001</leafValues></_>
        <_>
          <internalNodes>
            0 -1 25 -1.4024367555975914e-004</internalNodes>
          <leafValues>
            -7.0092833042144775e-001 9.5541998744010925e-002</leafValues></_>
        <_>
          <internalNodes>
            0 -1 262 -1.3626017607748508e-003</internalNodes>
          <leafValues>
            4.6056181192398071e-001 -1.6927725076675415e-001</leafValues></_>
        <_>
          <internalNodes>
            0 -1 254 2.4738390929996967e-003</internalNodes>
          <leafValues>
            -1.6479811072349548e-001 4.4900640845298767e-001</leafValues></_>
        <_>
          <internalNodes>
            0 -1 248 1.9360729493200779e-004</internalNodes>
          <leafValues>
            1.1092259734869003e-001 -7.1006035804748535e-001</leafValues></_>
        <_>
          <internalNodes>
            0 -1 248 -2.5009026285260916e-004</internalNodes>
          <leafValues>
            -8.0409520864486694e-001 7.5342684984207153e-002</leafValues></_></weakClassifiers></_>
    <!-- stage 6 -->
    <_>
      <maxWeakCount>13</maxWeakCount>
      <stageThreshold>-3.7430298328399658e-001</stageThreshold>
      <weakClassifiers>
        <_>
          <internalNodes>
            0 -1 308 3.7419470027089119e-004</internalNodes>
          <leafValues>
            5.1374948024749756e-001 -6.7676764726638794e-001</leafValues></_>
        <_>
          <internalNodes>
            0 -1 200 -3.0268407426774502e-003</internalNodes>
          <leafValues>
            5.6927698850631714e-001 -8.4641084074974060e-002</leafValues></_>
        <_>
          <internalNodes>
            0 -1 199 2.4359258823096752e-003</internalNodes>
          <leafValues>
            -2.1938003599643707e-001 4.9377518892288208e-001</leafValues></_>
        <_>
          <internalNodes>
            0 -1 208 -1.0280639398843050e-003</internalNodes>
          <leafValues>
            4.0830194950103760e-001 -1.7767037451267242e-001</leafValues></_>
        <_>
          <internalNodes>
            0 -1 221 5.4719513282179832e-003</internalNodes>
          <leafValues>
            -2.2250503301620483e-001 4.7938877344131470e-001</leafValues></_>
        <_>
          <internalNodes>
            0 -1 48 -5.3127501159906387e-003</internalNodes>
          <leafValues>
            4.8847791552543640e-001 -1.2948502600193024e-001</leafValues></_>
        <_>
          <internalNodes>
            0 -1 59 1.6099580097943544e-003</internalNodes>
          <leafValues>
            -2.4190840125083923e-001 4.9682077765464783e-001</leafValues></_>
        <_>
          <internalNodes>
            0 -1 278 2.8678748756647110e-002</internalNodes>
          <leafValues>
            -1.7635308206081390e-001 4.8451963067054749e-001</leafValues></_>
        <_>
          <internalNodes>
            0 -1 53 2.6544573483988643e-004</internalNodes>
          <leafValues>
            1.2701754271984100e-001 -8.3814853429794312e-001</leafValues></_>
        <_>
          <internalNodes>
            0 -1 228 8.1315077841281891e-003</internalNodes>
          <leafValues>
            -1.5648101270198822e-001 5.5743920803070068e-001</leafValues></_>
        <_>
          <internalNodes>
            0 -1 230 -6.6277887672185898e-003</internalNodes>
          <leafValues>
            4.7745823860168457e-001 -2.0150054991245270e-001</leafValues></_>
        <_>
          <internalNodes>
            0 -1 220 1.8055997497867793e-004</internalNodes>
          <leafValues>
            1.1133927851915359e-001 -7.0476627349853516e-001</leafValues></_>
        <_>
          <internalNodes>
            0 -1 64 7.9250391572713852e-003</internalNodes>
          <leafValues>
            -1.9544343650341034e-001 3.6856928467750549e-001</leafValues></_></weakClassifiers></_>
    <!-- stage 7 -->
    <_>
      <maxWeakCount>12</maxWeakCount>
      <stageThreshold>-2.4441963434219360e-001</stageThreshold>
      <weakClassifiers>
        <_>
          <internalNodes>
            0 -1 25 2.9483344405889511e-004</internalNodes>
          <leafValues>
            5.2280700206756592e-001 -7.4545454978942871e-001</leafValues></_>
        <_>
          <internalNodes>
            0 -1 50 2.4595018476247787e-002</internalNodes>
          <leafValues>
            -6.2827967107295990e-002 6.5372204780578613e-001</leafValues></_>
        <_>
          <internalNodes>
            0 -1 122 5.1652137190103531e-003</internalNodes>
          <leafValues>
            -1.9247327744960785e-001 5.4320919513702393e-001</leafValues></_>
        <_>
          <internalNodes>
            0 -1 78 -1.1934383073821664e-003</internalNodes>
          <leafValues>
            4.5509386062622070e-001 -1.6441625356674194e-001</leafValues></_>
        <_>
          <internalNodes>
            0 -1 70 6.2367040663957596e-003</internalNodes>
          <leafValues>
            -2.3029215633869171e-001 4.8688945174217224e-001</leafValues></_>
        <_>
          <internalNodes>
            0 -1 103 -9.4546992331743240e-003</internalNodes>
          <leafValues>
            6.4532494544982910e-001 -9.3469515442848206e-002</leafValues></_>
        <_>
          <internalNodes>
            0 -1 133 6.1487713828682899e-003</internalNodes>
          <leafValues>
            -1.4876401424407959e-001 5.6849360466003418e-001</leafValues></_>
        <_>
          <internalNodes>
            0 -1 304 2.4648723774589598e-004</internalNodes>
          <leafValues>
            1.0172737389802933e-001 -8.1781023740768433e-001</leafValues></_>
        <_>
          <internalNodes>
            0 -1 211 1.3414119370281696e-002</internalNodes>
          <leafValues>
            -1.2505973875522614e-001 5.7504928112030029e-001</leafValues></_>
        <_>
          <internalNodes>
            0 -1 223 -1.9147966522723436e-003</internalNodes>
          <leafValues>
            4.0599417686462402e-001 -1.9298280775547028e-001</leafValues></_>
        <_>
          <internalNodes>
            0 -1 220 -2.7204709476791322e-004</internalNodes>
          <leafValues>
            -8.2417452335357666e-001 9.8582275211811066e-002</leafValues></_>
        <_>
          <internalNodes>
            0 -1 222 9.2576490715146065e-004</internalNodes>
          <leafValues>
            -1.7972579598426819e-001 4.2660456895828247e-001</leafValues></_></weakClassifiers></_>
    <!-- stage 8 -->
    <_>
      <maxWeakCount>17</maxWeakCount>
      <stageThreshold>-4.7430658340454102e-001</stageThreshold>
      <weakClassifiers>
        <_>
          <internalNodes>
            0 -1 304 -2.6485568378120661e-004</internalNodes>
          <leafValues>
            -5.5636364221572876e-001 5.0476193428039551e-001</leafValues></_>
        <_>
          <internalNodes>
            0 -1 2 -6.7505231127142906e-003</internalNodes>
          <leafValues>
            -5.3149157762527466e-001 1.9122238457202911e-001</leafValues></_>
        <_>
          <internalNodes>
            0 -1 203 -3.4976983442902565e-003</internalNodes>
          <leafValues>
            3.1293186545372009e-001 -2.2510163486003876e-001</leafValues></_>
        <_>
          <internalNodes>
            0 -1 75 1.8656270578503609e-002</internalNodes>
          <leafValues>
            -1.0228478908538818e-001 6.3408267498016357e-001</leafValues></_>
        <_>
          <internalNodes>
            0 -1 1 -1.0970120318233967e-002</internalNodes>
          <leafValues>
            5.1091921329498291e-001 -1.3083600997924805e-001</leafValues></_>
        <_>
          <internalNodes>
            0 -1 19 2.3433746537193656e-004</internalNodes>
          <leafValues>
            6.0722291469573975e-002 -8.1181728839874268e-001</leafValues></_>
        <_>
          <internalNodes>
            0 -1 265 7.9085128381848335e-003</internalNodes>
          <leafValues>
            -1.6101139783859253e-001 4.3874728679656982e-001</leafValues></_>
        <_>
          <internalNodes>
            0 -1 287 -5.6324801407754421e-003</internalNodes>
          <leafValues>
            5.4698932170867920e-001 -1.1668485403060913e-001</leafValues></_>
        <_>
          <internalNodes>
            0 -1 44 6.4722048118710518e-003</internalNodes>
          <leafValues>
            9.4703927636146545e-002 -7.4991273880004883e-001</leafValues></_>
        <_>
          <internalNodes>
            0 -1 21 1.3626614236272871e-004</internalNodes>
          <leafValues>
            9.3865200877189636e-002 -6.1896401643753052e-001</leafValues></_>
        <_>
          <internalNodes>
            0 -1 172 -4.4993581250309944e-003</internalNodes>
          <leafValues>
            4.7854968905448914e-001 -1.3402652740478516e-001</leafValues></_>
        <_>
          <internalNodes>
            0 -1 156 3.1138416379690170e-002</internalNodes>
          <leafValues>
            -1.5059247612953186e-001 4.9043810367584229e-001</leafValues></_>
        <_>
          <internalNodes>
            0 -1 0 6.6751133999787271e-005</internalNodes>
          <leafValues>
            1.1243749409914017e-001 -5.5202251672744751e-001</leafValues></_>
        <_>
          <internalNodes>
            0 -1 114 1.8761910498142242e-002</internalNodes>
          <leafValues>
            -1.2317296862602234e-001 5.5454617738723755e-001</leafValues></_>
        <_>
          <internalNodes>
            0 -1 123 1.6862250864505768e-002</internalNodes>
          <leafValues>
            -9.5903337001800537e-002 5.9158694744110107e-001</leafValues></_>
        <_>
          <internalNodes>
            0 -1 106 3.7784809246659279e-003</internalNodes>
          <leafValues>
            -1.5854950249195099e-001 3.8109216094017029e-001</leafValues></_>
        <_>
          <internalNodes>
            0 -1 97 -1.6169990412890911e-003</internalNodes>
          <leafValues>
            4.8943251371383667e-001 -1.3385628163814545e-001</leafValues></_></weakClassifiers></_>
    <!-- stage 9 -->
    <_>
      <maxWeakCount>18</maxWeakCount>
      <stageThreshold>-4.2885291576385498e-001</stageThreshold>
      <weakClassifiers>
        <_>
          <internalNodes>
            0 -1 65 3.7417875137180090e-004</internalNodes>
          <leafValues>
            4.8809793591499329e-001 -7.8698223829269409e-001</leafValues></_>
        <_>
          <internalNodes>
            0 -1 240 9.2007555067539215e-003</internalNodes>
          <leafValues>
            -8.7954007089138031e-002 5.0258880853652954e-001</leafValues></_>
        <_>
          <internalNodes>
            0 -1 286 3.6089792847633362e-002</internalNodes>
          <leafValues>
            -1.5405936539173126e-001 4.8121407628059387e-001</leafValues></_>
        <_>
          <internalNodes>
            0 -1 294 -1.8764685839414597e-002</internalNodes>
          <leafValues>
            5.6319338083267212e-001 -1.1331979930400848e-001</leafValues></_>
        <_>
          <internalNodes>
            0 -1 14 -3.2008342444896698e-002</internalNodes>
          <leafValues>
            4.2991942167282104e-001 -1.5895295143127441e-001</leafValues></_>
        <_>
          <internalNodes>
            0 -1 247 2.7472263900563121e-004</internalNodes>
          <leafValues>
            9.6451193094253540e-002 -6.5610194206237793e-001</leafValues></_>
        <_>
          <internalNodes>
            0 -1 34 1.2272994965314865e-002</internalNodes>
          <leafValues>
            -1.2730224430561066e-001 5.4441881179809570e-001</leafValues></_>
        <_>
          <internalNodes>
            0 -1 232 1.6970913566183299e-004</internalNodes>
          <leafValues>
            1.1617572605609894e-001 -6.3949400186538696e-001</leafValues></_>
        <_>
          <internalNodes>
            0 -1 218 3.9777723141014576e-003</internalNodes>
          <leafValues>
            -1.4085112512111664e-001 5.2353197336196899e-001</leafValues></_>
        <_>
          <internalNodes>
            0 -1 210 -1.9857022911310196e-002</internalNodes>
          <leafValues>
            5.0473225116729736e-001 -1.2396717071533203e-001</leafValues></_>
        <_>
          <internalNodes>
            0 -1 141 1.6409014165401459e-001</internalNodes>
          <leafValues>
            1.3728189468383789e-001 -4.6263155341148376e-001</leafValues></_>
        <_>
          <internalNodes>
            0 -1 16 1.6990685253404081e-004</internalNodes>
          <leafValues>
            7.5796782970428467e-002 -6.6402208805084229e-001</leafValues></_>
        <_>
          <internalNodes>
            0 -1 108 -2.1786440629512072e-004</internalNodes>
          <leafValues>
            -7.3218101263046265e-001 7.3581807315349579e-002</leafValues></_>
        <_>
          <internalNodes>
            0 -1 263 -1.2450846843421459e-003</internalNodes>
          <leafValues>
            4.2290130257606506e-001 -1.6513957083225250e-001</leafValues></_>
        <_>
          <internalNodes>
            0 -1 77 -4.9371607601642609e-003</internalNodes>
          <leafValues>
            4.5125901699066162e-001 -1.4385637640953064e-001</leafValues></_>
        <_>
          <internalNodes>
            0 -1 139 -8.3627924323081970e-003</internalNodes>
          <leafValues>
            5.3519165515899658e-001 -1.3421213626861572e-001</leafValues></_>
        <_>
          <internalNodes>
            0 -1 129 5.2442243322730064e-003</internalNodes>
          <leafValues>
            1.2012627720832825e-001 -6.1819458007812500e-001</leafValues></_>
        <_>
          <internalNodes>
            0 -1 162 4.8781577497720718e-003</internalNodes>
          <leafValues>
            -1.1783275753259659e-001 5.7740277051925659e-001</leafValues></_></weakClassifiers></_>
    <!-- stage 10 -->
    <_>
      <maxWeakCount>18</maxWeakCount>
      <stageThreshold>-2.6722607016563416e-001</stageThreshold>
      <weakClassifiers>
        <_>
          <internalNodes>
            0 -1 311 -4.4943660032004118e-004</internalNodes>
          <leafValues>
            -5.9292036294937134e-001 4.9471750855445862e-001</leafValues></_>
        <_>
          <internalNodes>
            0 -1 56 -1.0585429146885872e-002</internalNodes>
          <leafValues>
            4.1086354851722717e-001 -1.2687207758426666e-001</leafValues></_>
        <_>
          <internalNodes>
            0 -1 274 1.2549880892038345e-002</internalNodes>
          <leafValues>
            -1.5385477244853973e-001 5.2182054519653320e-001</leafValues></_>
        <_>
          <internalNodes>
            0 -1 163 -2.3327775299549103e-002</internalNodes>
          <leafValues>
            5.6731408834457397e-001 -1.3095284998416901e-001</leafValues></_>
        <_>
          <internalNodes>
            0 -1 169 1.2230614200234413e-002</internalNodes>
          <leafValues>
            -1.4518254995346069e-001 4.9914267659187317e-001</leafValues></_>
        <_>
          <internalNodes>
            0 -1 241 1.8678744090721011e-003</internalNodes>
          <leafValues>
            -1.6780474781990051e-001 3.5420635342597961e-001</leafValues></_>
        <_>
          <internalNodes>
            0 -1 62 1.3545282185077667e-002</internalNodes>
          <leafValues>
            -1.1881210654973984e-001 5.1707005500793457e-001</leafValues></_>
        <_>
          <internalNodes>
            0 -1 319 -1.6394371050409973e-004</internalNodes>
          <leafValues>
            -6.2173396348953247e-001 1.1352951824665070e-001</leafValues></_>
        <_>
          <internalNodes>
            0 -1 168 4.2112646624445915e-003</internalNodes>
          <leafValues>
            6.6329360008239746e-002 -8.0281382799148560e-001</leafValues></_>
        <_>
          <internalNodes>
            0 -1 217 4.8975744284689426e-003</internalNodes>
          <leafValues>
            -1.5002259612083435e-001 4.2918056249618530e-001</leafValues></_>
        <_>
          <internalNodes>
            0 -1 266 2.7431856142356992e-004</internalNodes>
          <leafValues>
            8.8877439498901367e-002 -6.4176702499389648e-001</leafValues></_>
        <_>
          <internalNodes>
            0 -1 68 -2.3337479215115309e-003</internalNodes>
          <leafValues>
            3.3435371518135071e-001 -1.7439888417720795e-001</leafValues></_>
        <_>
          <internalNodes>
            0 -1 71 3.6896029487252235e-003</internalNodes>
          <leafValues>
            -1.5640993416309357e-001 4.2024093866348267e-001</leafValues></_>
        <_>
          <internalNodes>
            0 -1 135 4.1666720062494278e-003</internalNodes>
          <leafValues>
            -1.2699620425701141e-001 4.7385391592979431e-001</leafValues></_>
        <_>
          <internalNodes>
            0 -1 188 -4.3259393423795700e-003</internalNodes>
          <leafValues>
            4.6185886859893799e-001 -1.3052380084991455e-001</leafValues></_>
        <_>
          <internalNodes>
            0 -1 239 2.9993085190653801e-003</internalNodes>
          <leafValues>
            -1.3400183618068695e-001 4.7493550181388855e-001</leafValues></_>
        <_>
          <internalNodes>
            0 -1 177 1.1719114845618606e-003</internalNodes>
          <leafValues>
            -1.4346268773078918e-001 3.8653919100761414e-001</leafValues></_>
        <_>
          <internalNodes>
            0 -1 194 8.2216188311576843e-003</internalNodes>
          <leafValues>
            -1.7347881197929382e-001 3.5224005579948425e-001</leafValues></_></weakClassifiers></_>
    <!-- stage 11 -->
    <_>
      <maxWeakCount>18</maxWeakCount>
      <stageThreshold>-3.1843262910842896e-001</stageThreshold>
      <weakClassifiers>
        <_>
          <internalNodes>
            0 -1 281 9.9883086979389191e-002</internalNodes>
          <leafValues>
            4.9566990137100220e-001 -2.7753305435180664e-001</leafValues></_>
        <_>
          <internalNodes>
            0 -1 138 9.4889488536864519e-004</internalNodes>
          <leafValues>
            1.2141203880310059e-001 -6.7713642120361328e-001</leafValues></_>
        <_>
          <internalNodes>
            0 -1 100 7.2496756911277771e-002</internalNodes>
          <leafValues>
            -1.0074403882026672e-001 6.1860233545303345e-001</leafValues></_>
        <_>
          <internalNodes>
            0 -1 101 -1.0542984120547771e-002</internalNodes>
          <leafValues>
            4.2093887925148010e-001 -2.5032913684844971e-001</leafValues></_>
        <_>
          <internalNodes>
            0 -1 79 -1.1890672147274017e-002</internalNodes>
          <leafValues>
            5.3760069608688354e-001 -4.7873966395854950e-002</leafValues></_>
        <_>
          <internalNodes>
            0 -1 166 8.3532172720879316e-004</internalNodes>
          <leafValues>
            7.1339115500450134e-002 -6.5996015071868896e-001</leafValues></_>
        <_>
          <internalNodes>
            0 -1 98 1.7333347350358963e-002</internalNodes>
          <leafValues>
            -1.0466033965349197e-001 5.3971755504608154e-001</leafValues></_>
        <_>
          <internalNodes>
            0 -1 284 -1.6763499006628990e-003</internalNodes>
          <leafValues>
            3.6670306324958801e-001 -1.8009458482265472e-001</leafValues></_>
        <_>
          <internalNodes>
            0 -1 270 4.2026876471936703e-003</internalNodes>
          <leafValues>
            -1.6197609901428223e-001 3.5165005922317505e-001</leafValues></_>
        <_>
          <internalNodes>
            0 -1 40 6.9702751934528351e-003</internalNodes>
          <leafValues>
            -1.4633725583553314e-001 4.0360459685325623e-001</leafValues></_>
        <_>
          <internalNodes>
            0 -1 126 -1.0735617252066731e-004</internalNodes>
          <leafValues>
            -5.0980013608932495e-001 1.2138480693101883e-001</leafValues></_>
        <_>
          <internalNodes>
            0 -1 136 -1.7593935132026672e-002</internalNodes>
          <leafValues>
            5.3207719326019287e-001 -1.0708422958850861e-001</leafValues></_>
        <_>
          <internalNodes>
            0 -1 179 6.2858741730451584e-003</internalNodes>
          <leafValues>
            -1.0592121630907059e-001 4.7088077664375305e-001</leafValues></_>
        <_>
          <internalNodes>
            0 -1 314 1.5239468484651297e-004</internalNodes>
          <leafValues>
            9.3062825500965118e-002 -6.3498342037200928e-001</leafValues></_>
        <_>
          <internalNodes>
            0 -1 109 2.5108194677159190e-004</internalNodes>
          <leafValues>
            7.0462256669998169e-002 -6.4527779817581177e-001</leafValues></_>
        <_>
          <internalNodes>
            0 -1 229 1.6132812015712261e-003</internalNodes>
          <leafValues>
            -1.1970729380846024e-001 4.5019826292991638e-001</leafValues></_>
        <_>
          <internalNodes>
            0 -1 264 1.6150369774550200e-003</internalNodes>
          <leafValues>
            -1.2583652138710022e-001 4.0680694580078125e-001</leafValues></_>
        <_>
          <internalNodes>
            0 -1 255 -6.1679175123572350e-003</internalNodes>
          <leafValues>
            4.5876497030258179e-001 -1.3938993215560913e-001</leafValues></_></weakClassifiers></_>
    <!-- stage 12 -->
    <_>
      <maxWeakCount>20</maxWeakCount>
      <stageThreshold>-4.4211256504058838e-001</stageThreshold>
      <weakClassifiers>
        <_>
          <internalNodes>
            0 -1 42 4.3646721169352531e-003</internalNodes>
          <leafValues>
            4.9526974558830261e-001 -2.4946695566177368e-001</leafValues></_>
        <_>
          <internalNodes>
            0 -1 13 -4.5196510851383209e-002</internalNodes>
          <leafValues>
            5.2243608236312866e-001 -7.3026224970817566e-002</leafValues></_>
        <_>
          <internalNodes>
            0 -1 307 5.3903628140687943e-003</internalNodes>
          <leafValues>
            -7.6648473739624023e-002 7.0700502395629883e-001</leafValues></_>
        <_>
          <internalNodes>
            0 -1 242 2.1399669349193573e-003</internalNodes>
          <leafValues>
            -2.0368938148021698e-001 3.5177040100097656e-001</leafValues></_>
        <_>
          <internalNodes>
            0 -1 28 1.6224708408117294e-002</internalNodes>
          <leafValues>
            -1.2290536612272263e-001 4.6492367982864380e-001</leafValues></_>
        <_>
          <internalNodes>
            0 -1 259 4.0074773132801056e-003</internalNodes>
          <leafValues>
            -7.2254925966262817e-002 5.2471274137496948e-001</leafValues></_>
        <_>
          <internalNodes>
            0 -1 250 -6.9426344707608223e-003</internalNodes>
          <leafValues>
            3.7756043672561646e-001 -1.9907113909721375e-001</leafValues></_>
        <_>
          <internalNodes>
            0 -1 251 4.9191280268132687e-003</internalNodes>
          <leafValues>
            -1.3531692326068878e-001 4.2315730452537537e-001</leafValues></_>
        <_>
          <internalNodes>
            0 -1 24 1.7876643687486649e-004</internalNodes>
          <leafValues>
            8.4891133010387421e-002 -7.1654772758483887e-001</leafValues></_>
        <_>
          <internalNodes>
            0 -1 23 -7.5849343556910753e-004</internalNodes>
          <leafValues>
            -7.4770414829254150e-001 5.4434664547443390e-002</leafValues></_>
        <_>
          <internalNodes>
            0 -1 196 9.1076837852597237e-003</internalNodes>
          <leafValues>
            -1.0658508539199829e-001 5.0384753942489624e-001</leafValues></_>
        <_>
          <internalNodes>
            0 -1 198 1.2267505750060081e-002</internalNodes>
          <leafValues>
            -1.2620979547500610e-001 4.2498087882995605e-001</leafValues></_>
        <_>
          <internalNodes>
            0 -1 130 1.2444686144590378e-002</internalNodes>
          <leafValues>
            -1.4017155766487122e-001 4.1615658998489380e-001</leafValues></_>
        <_>
          <internalNodes>
            0 -1 233 -8.4460579091683030e-004</internalNodes>
          <leafValues>
            -7.7811449766159058e-001 7.6120108366012573e-002</leafValues></_>
        <_>
          <internalNodes>
            0 -1 116 1.7794389277696609e-003</internalNodes>
          <leafValues>
            -1.4935140311717987e-001 3.8222980499267578e-001</leafValues></_>
        <_>
          <internalNodes>
            0 -1 118 -1.3243465218693018e-003</internalNodes>
          <leafValues>
            4.1589191555976868e-001 -1.6869303584098816e-001</leafValues></_>
        <_>
          <internalNodes>
            0 -1 154 9.0154609642922878e-004</internalNodes>
          <leafValues>
            8.4612846374511719e-002 -7.6471024751663208e-001</leafValues></_>
        <_>
          <internalNodes>
            0 -1 302 -4.2849415331147611e-004</internalNodes>
          <leafValues>
            -7.8012609481811523e-001 4.8416059464216232e-002</leafValues></_>
        <_>
          <internalNodes>
            0 -1 183 -2.5883939117193222e-002</internalNodes>
          <leafValues>
            4.9974843859672546e-001 -1.1126804351806641e-001</leafValues></_>
        <_>
          <internalNodes>
            0 -1 195 1.1005902197211981e-003</internalNodes>
          <leafValues>
            -1.4360614120960236e-001 4.2198160290718079e-001</leafValues></_></weakClassifiers></_>
    <!-- stage 13 -->
    <_>
      <maxWeakCount>21</maxWeakCount>
      <stageThreshold>-4.3490108847618103e-001</stageThreshold>
      <weakClassifiers>
        <_>
          <internalNodes>
            0 -1 12 1.2090563774108887e-002</internalNodes>
          <leafValues>
            4.7273170948028564e-001 -3.8831615447998047e-001</leafValues></_>
        <_>
          <internalNodes>
            0 -1 35 -3.9985999464988708e-003</internalNodes>
          <leafValues>
            4.7843214869499207e-001 -9.1810926795005798e-002</leafValues></_>
        <_>
          <internalNodes>
            0 -1 190 1.0163527913391590e-003</internalNodes>
          <leafValues>
            8.0962508916854858e-002 -6.8803536891937256e-001</leafValues></_>
        <_>
          <internalNodes>
            0 -1 299 -5.1332726143300533e-003</internalNodes>
          <leafValues>
            4.4534054398536682e-001 -1.2325905263423920e-001</leafValues></_>
        <_>
          <internalNodes>
            0 -1 280 2.8138197958469391e-003</internalNodes>
          <leafValues>
            -1.4688496291637421e-001 4.2556822299957275e-001</leafValues></_>
        <_>
          <internalNodes>
            0 -1 257 1.3194503262639046e-002</internalNodes>
          <leafValues>
            -1.4973583817481995e-001 4.9713227152824402e-001</leafValues></_>
        <_>
          <internalNodes>
            0 -1 86 3.3771053422242403e-003</internalNodes>
          <leafValues>
            -1.4175459742546082e-001 3.6827930808067322e-001</leafValues></_>
        <_>
          <internalNodes>
            0 -1 73 8.5546178743243217e-003</internalNodes>
          <leafValues>
            -1.3079461455345154e-001 3.9621567726135254e-001</leafValues></_>
        <_>
          <internalNodes>
            0 -1 291 8.4596395026892424e-004</internalNodes>
          <leafValues>
            8.6260288953781128e-002 -7.0219689607620239e-001</leafValues></_>
        <_>
          <internalNodes>
            0 -1 296 5.1906411536037922e-003</internalNodes>
          <leafValues>
            -1.2488367408514023e-001 5.5117118358612061e-001</leafValues></_>
        <_>
          <internalNodes>
            0 -1 288 -6.7320431116968393e-004</internalNodes>
          <leafValues>
            -4.6472540497779846e-001 1.3055719435214996e-001</leafValues></_>
        <_>
          <internalNodes>
            0 -1 219 9.7363106906414032e-003</internalNodes>
          <leafValues>
            -9.0311132371425629e-002 4.9646127223968506e-001</leafValues></_>
        <_>
          <internalNodes>
            0 -1 245 6.9572180509567261e-003</internalNodes>
          <leafValues>
            -1.3737073540687561e-001 4.1359615325927734e-001</leafValues></_>
        <_>
          <internalNodes>
            0 -1 231 4.4536059722304344e-003</internalNodes>
          <leafValues>
            -1.3860769569873810e-001 3.5233113169670105e-001</leafValues></_>
        <_>
          <internalNodes>
            0 -1 253 1.3261763378977776e-003</internalNodes>
          <leafValues>
            -1.3006958365440369e-001 3.7751099467277527e-001</leafValues></_>
        <_>
          <internalNodes>
            0 -1 252 -2.6079146191477776e-003</internalNodes>
          <leafValues>
            4.5329052209854126e-001 -1.1147346347570419e-001</leafValues></_>
        <_>
          <internalNodes>
            0 -1 43 1.6914457955863327e-004</internalNodes>
          <leafValues>
            1.0106144845485687e-001 -5.7940471172332764e-001</leafValues></_>
        <_>
          <internalNodes>
            0 -1 69 -4.1671916842460632e-003</internalNodes>
          <leafValues>
            3.8353502750396729e-001 -1.4657789468765259e-001</leafValues></_>
        <_>
          <internalNodes>
            0 -1 117 1.1935278773307800e-002</internalNodes>
          <leafValues>
            -1.2407454848289490e-001 4.3180912733078003e-001</leafValues></_>
        <_>
          <internalNodes>
            0 -1 82 -1.0774048976600170e-002</internalNodes>
          <leafValues>
            4.0991809964179993e-001 -1.2555836141109467e-001</leafValues></_>
        <_>
          <internalNodes>
            0 -1 316 -1.3629780733026564e-004</internalNodes>
          <leafValues>
            -5.9807318449020386e-001 9.6658945083618164e-002</leafValues></_></weakClassifiers></_>
    <!-- stage 14 -->
    <_>
      <maxWeakCount>20</maxWeakCount>
      <stageThreshold>-2.8965672850608826e-001</stageThreshold>
      <weakClassifiers>
        <_>
          <internalNodes>
            0 -1 317 2.2437724692281336e-004</internalNodes>
          <leafValues>
            4.4474261999130249e-001 -5.6906080245971680e-001</leafValues></_>
        <_>
          <internalNodes>
            0 -1 142 1.4037804305553436e-001</internalNodes>
          <leafValues>
            -5.9548910707235336e-002 5.1056408882141113e-001</leafValues></_>
        <_>
          <internalNodes>
            0 -1 164 -7.9874657094478607e-003</internalNodes>
          <leafValues>
            4.2245706915855408e-001 -1.5945568680763245e-001</leafValues></_>
        <_>
          <internalNodes>
            0 -1 132 2.2604960948228836e-002</internalNodes>
          <leafValues>
            -9.0315632522106171e-002 5.2906775474548340e-001</leafValues></_>
        <_>
          <internalNodes>
            0 -1 256 4.5795040205121040e-003</internalNodes>
          <leafValues>
            -1.7120066285133362e-001 3.4594056010246277e-001</leafValues></_>
        <_>
          <internalNodes>
            0 -1 148 -2.1062614396214485e-003</internalNodes>
          <leafValues>
            3.9445695281028748e-001 -1.4726798236370087e-001</leafValues></_>
        <_>
          <internalNodes>
            0 -1 99 1.1072835884988308e-002</internalNodes>
          <leafValues>
            -9.8480753600597382e-002 4.5787116885185242e-001</leafValues></_>
        <_>
          <internalNodes>
            0 -1 149 2.5979720521718264e-004</internalNodes>
          <leafValues>
            -1.7466148734092712e-001 3.1802663207054138e-001</leafValues></_>
        <_>
          <internalNodes>
            0 -1 57 -3.7992313504219055e-002</internalNodes>
          <leafValues>
            3.6077329516410828e-001 -1.4845463633537292e-001</leafValues></_>
        <_>
          <internalNodes>
            0 -1 267 -3.9665326476097107e-003</internalNodes>
          <leafValues>
            3.8934469223022461e-001 -1.4547649025917053e-001</leafValues></_>
        <_>
          <internalNodes>
            0 -1 322 4.9863790627568960e-004</internalNodes>
          <leafValues>
            9.7976066172122955e-002 -5.2490091323852539e-001</leafValues></_>
        <_>
          <internalNodes>
            0 -1 6 -3.9243127685040236e-004</internalNodes>
          <leafValues>
            -7.8906846046447754e-001 5.6872632354497910e-002</leafValues></_>
        <_>
          <internalNodes>
            0 -1 17 -1.0576220229268074e-003</internalNodes>
          <leafValues>
            -8.1740570068359375e-001 4.9177628010511398e-002</leafValues></_>
        <_>
          <internalNodes>
            0 -1 297 -5.5192655418068171e-004</internalNodes>
          <leafValues>
            -7.1486002206802368e-001 5.2303940057754517e-002</leafValues></_>
        <_>
          <internalNodes>
            0 -1 301 2.9632565565407276e-004</internalNodes>
          <leafValues>
            6.9749638438224792e-002 -5.6820875406265259e-001</leafValues></_>
        <_>
          <internalNodes>
            0 -1 87 6.1273174360394478e-003</internalNodes>
          <leafValues>
            8.8966175913810730e-002 -5.1306635141372681e-001</leafValues></_>
        <_>
          <internalNodes>
            0 -1 213 -5.8196540921926498e-003</internalNodes>
          <leafValues>
            4.3068045377731323e-001 -1.1676809191703796e-001</leafValues></_>
        <_>
          <internalNodes>
            0 -1 181 1.5770012512803078e-002</internalNodes>
          <leafValues>
            -1.1090757697820663e-001 4.3401363492012024e-001</leafValues></_>
        <_>
          <internalNodes>
            0 -1 187 -1.3033956056460738e-003</internalNodes>
          <leafValues>
            3.6923190951347351e-001 -1.2798017263412476e-001</leafValues></_>
        <_>
          <internalNodes>
            0 -1 171 1.7577777616679668e-003</internalNodes>
          <leafValues>
            7.6617591083049774e-002 -6.8771803379058838e-001</leafValues></_></weakClassifiers></_>
    <!-- stage 15 -->
    <_>
      <maxWeakCount>23</maxWeakCount>
      <stageThreshold>-4.0275090932846069e-001</stageThreshold>
      <weakClassifiers>
        <_>
          <internalNodes>
            0 -1 180 -1.6536867618560791e-001</internalNodes>
          <leafValues>
            -4.6666666865348816e-001 4.4305732846260071e-001</leafValues></_>
        <_>
          <internalNodes>
            0 -1 295 1.1027374304831028e-002</internalNodes>
          <leafValues>
            -7.0756375789642334e-002 4.4062536954879761e-001</leafValues></_>
        <_>
          <internalNodes>
            0 -1 290 -1.4678409323096275e-002</internalNodes>
          <leafValues>
            4.5779582858085632e-001 -1.4780457317829132e-001</leafValues></_>
        <_>
          <internalNodes>
            0 -1 74 1.8099498003721237e-002</internalNodes>
          <leafValues>
            -6.3344135880470276e-002 6.7042100429534912e-001</leafValues></_>
        <_>
          <internalNodes>
            0 -1 91 1.1939142830669880e-002</internalNodes>
          <leafValues>
            -1.4018735289573669e-001 4.4756400585174561e-001</leafValues></_>
        <_>
          <internalNodes>
            0 -1 303 -3.5986126749776304e-004</internalNodes>
          <leafValues>
            -6.8512153625488281e-001 9.5069274306297302e-002</leafValues></_>
        <_>
          <internalNodes>
            0 -1 113 4.5274645090103149e-003</internalNodes>
          <leafValues>
            -1.2359938770532608e-001 5.5425310134887695e-001</leafValues></_>
        <_>
          <internalNodes>
            0 -1 173 2.2491425275802612e-002</internalNodes>
          <leafValues>
            -1.1003161966800690e-001 3.6361250281333923e-001</leafValues></_>
        <_>
          <internalNodes>
            0 -1 197 2.2076582536101341e-003</internalNodes>
          <leafValues>
            7.1037605404853821e-002 -7.2021275758743286e-001</leafValues></_>
        <_>
          <internalNodes>
            0 -1 298 9.9005305673927069e-004</internalNodes>
          <leafValues>
            6.1740431934595108e-002 -5.9949117898941040e-001</leafValues></_>
        <_>
          <internalNodes>
            0 -1 204 -1.1632574722170830e-002</internalNodes>
          <leafValues>
            5.2245897054672241e-001 -8.9867115020751953e-002</leafValues></_>
        <_>
          <internalNodes>
            0 -1 205 4.0927259251475334e-003</internalNodes>
          <leafValues>
            -1.0084604471921921e-001 4.5915707945823669e-001</leafValues></_>
        <_>
          <internalNodes>
            0 -1 92 7.6765418052673340e-003</internalNodes>
          <leafValues>
            -1.3697932660579681e-001 3.4801802039146423e-001</leafValues></_>
        <_>
          <internalNodes>
            0 -1 234 1.9217956578359008e-003</internalNodes>
          <leafValues>
            6.9644130766391754e-002 -7.0949709415435791e-001</leafValues></_>
        <_>
          <internalNodes>
            0 -1 131 6.5175555646419525e-003</internalNodes>
          <leafValues>
            -1.3470461964607239e-001 3.9032220840454102e-001</leafValues></_>
        <_>
          <internalNodes>
            0 -1 216 3.1597547233104706e-002</internalNodes>
          <leafValues>
            -6.5729722380638123e-002 5.7990252971649170e-001</leafValues></_>
        <_>
          <internalNodes>
            0 -1 268 1.9519929774105549e-003</internalNodes>
          <leafValues>
            -1.5382884442806244e-001 2.9143220186233521e-001</leafValues></_>
        <_>
          <internalNodes>
            0 -1 192 8.3269923925399780e-003</internalNodes>
          <leafValues>
            -1.1040598899126053e-001 4.2525237798690796e-001</leafValues></_>
        <_>
          <internalNodes>
            0 -1 121 1.9835984334349632e-002</internalNodes>
          <leafValues>
            -8.7104886770248413e-002 4.7841644287109375e-001</leafValues></_>
        <_>
          <internalNodes>
            0 -1 125 8.2607101649045944e-004</internalNodes>
          <leafValues>
            -1.2362635880708694e-001 3.9624851942062378e-001</leafValues></_>
        <_>
          <internalNodes>
            0 -1 153 7.0810368924867362e-005</internalNodes>
          <leafValues>
            8.9716553688049316e-002 -5.0687980651855469e-001</leafValues></_>
        <_>
          <internalNodes>
            0 -1 146 -1.3120713829994202e-001</internalNodes>
          <leafValues>
            -7.4579000473022461e-001 5.6696869432926178e-002</leafValues></_>
        <_>
          <internalNodes>
            0 -1 152 -6.5792645327746868e-003</internalNodes>
          <leafValues>
            -5.9507060050964355e-001 6.8999931216239929e-002</leafValues></_></weakClassifiers></_>
    <!-- stage 16 -->
    <_>
      <maxWeakCount>25</maxWeakCount>
      <stageThreshold>-4.9237245321273804e-001</stageThreshold>
      <weakClassifiers>
        <_>
          <internalNodes>
            0 -1 140 3.3237360185012221e-004</internalNodes>
          <leafValues>
            4.2433968186378479e-001 -7.6744186878204346e-001</leafValues></_>
        <_>
          <internalNodes>
            0 -1 55 9.4722703099250793e-002</internalNodes>
          <leafValues>
            1.3551081717014313e-001 -4.4703638553619385e-001</leafValues></_>
        <_>
          <internalNodes>
            0 -1 260 -1.8430259078741074e-002</internalNodes>
          <leafValues>
            3.7430205941200256e-001 -1.2937851250171661e-001</leafValues></_>
        <_>
          <internalNodes>
            0 -1 305 5.1632774993777275e-003</internalNodes>
          <leafValues>
            -1.0463243722915649e-001 5.1226407289505005e-001</leafValues></_>
        <_>
          <internalNodes>
            0 -1 225 3.7736776284873486e-003</internalNodes>
          <leafValues>
            -1.7595432698726654e-001 3.3053794503211975e-001</leafValues></_>
        <_>
          <internalNodes>
            0 -1 189 1.0610648896545172e-003</internalNodes>
          <leafValues>
            8.5346616804599762e-002 -5.4799199104309082e-001</leafValues></_>
        <_>
          <internalNodes>
            0 -1 258 1.1240575462579727e-002</internalNodes>
          <leafValues>
            -1.8989613652229309e-001 3.0730190873146057e-001</leafValues></_>
        <_>
          <internalNodes>
            0 -1 47 -1.8055841792374849e-003</internalNodes>
          <leafValues>
            3.6201119422912598e-001 -1.2543131411075592e-001</leafValues></_>
        <_>
          <internalNodes>
            0 -1 49 1.3259737170301378e-004</internalNodes>
          <leafValues>
            -1.6066323220729828e-001 3.6822509765625000e-001</leafValues></_>
        <_>
          <internalNodes>
            0 -1 58 -3.5589537583291531e-003</internalNodes>
          <leafValues>
            3.3370855450630188e-001 -1.2337020039558411e-001</leafValues></_>
        <_>
          <internalNodes>
            0 -1 29 1.1200175504200161e-004</internalNodes>
          <leafValues>
            9.0077042579650879e-002 -4.8542183637619019e-001</leafValues></_>
        <_>
          <internalNodes>
            0 -1 236 8.8890641927719116e-003</internalNodes>
          <leafValues>
            -8.3742454648017883e-002 5.5651819705963135e-001</leafValues></_>
        <_>
          <internalNodes>
            0 -1 202 4.6970252878963947e-003</internalNodes>
          <leafValues>
            -1.2803508341312408e-001 3.4821218252182007e-001</leafValues></_>
        <_>
          <internalNodes>
            0 -1 191 3.0977395363152027e-003</internalNodes>
          <leafValues>
            8.2009658217430115e-002 -5.7774716615676880e-001</leafValues></_>
        <_>
          <internalNodes>
            0 -1 115 2.6478238403797150e-002</internalNodes>
          <leafValues>
            -1.2494406104087830e-001 3.8252934813499451e-001</leafValues></_>
        <_>
          <internalNodes>
            0 -1 112 -1.7508011311292648e-002</internalNodes>
          <leafValues>
            3.9024189114570618e-001 -1.6017998754978180e-001</leafValues></_>
        <_>
          <internalNodes>
            0 -1 137 -7.2624022141098976e-003</internalNodes>
          <leafValues>
            4.3534788489341736e-001 -9.7981713712215424e-002</leafValues></_>
        <_>
          <internalNodes>
            0 -1 318 -1.0572258906904608e-004</internalNodes>
          <leafValues>
            -4.7114273905754089e-001 9.6515588462352753e-002</leafValues></_>
        <_>
          <internalNodes>
            0 -1 309 9.0175471268594265e-004</internalNodes>
          <leafValues>
            6.1800953000783920e-002 -6.9512164592742920e-001</leafValues></_>
        <_>
          <internalNodes>
            0 -1 276 2.2127243573777378e-004</internalNodes>
          <leafValues>
            8.1057891249656677e-002 -5.3950971364974976e-001</leafValues></_>
        <_>
          <internalNodes>
            0 -1 150 1.1246869340538979e-002</internalNodes>
          <leafValues>
            -1.0338109731674194e-001 4.4382691383361816e-001</leafValues></_>
        <_>
          <internalNodes>
            0 -1 60 6.9312886334955692e-003</internalNodes>
          <leafValues>
            -1.3801264762878418e-001 2.9815423488616943e-001</leafValues></_>
        <_>
          <internalNodes>
            0 -1 111 -2.7457694523036480e-003</internalNodes>
          <leafValues>
            3.0104854702949524e-001 -1.3587337732315063e-001</leafValues></_>
        <_>
          <internalNodes>
            0 -1 7 -2.1249181590974331e-003</internalNodes>
          <leafValues>
            -6.6720223426818848e-001 8.4909960627555847e-002</leafValues></_>
        <_>
          <internalNodes>
            0 -1 292 -9.2352628707885742e-003</internalNodes>
          <leafValues>
            5.0616556406021118e-001 -9.6003234386444092e-002</leafValues></_></weakClassifiers></_>
    <!-- stage 17 -->
    <_>
      <maxWeakCount>24</maxWeakCount>
      <stageThreshold>-4.2463457584381104e-001</stageThreshold>
      <weakClassifiers>
        <_>
          <internalNodes>
            0 -1 104 1.4484399557113647e-001</internalNodes>
          <leafValues>
            4.1378426551818848e-001 -5.3672313690185547e-001</leafValues></_>
        <_>
          <internalNodes>
            0 -1 151 -2.9828010126948357e-002</internalNodes>
          <leafValues>
            5.3238928318023682e-001 -5.6787341833114624e-002</leafValues></_>
        <_>
          <internalNodes>
            0 -1 165 9.4319516792893410e-003</internalNodes>
          <leafValues>
            -1.7143931984901428e-001 3.9296776056289673e-001</leafValues></_>
        <_>
          <internalNodes>
            0 -1 85 3.3825822174549103e-003</internalNodes>
          <leafValues>
            -1.5323498845100403e-001 3.3560258150100708e-001</leafValues></_>
        <_>
          <internalNodes>
            0 -1 11 1.5755278582219034e-004</internalNodes>
          <leafValues>
            6.3653841614723206e-002 -5.7769292593002319e-001</leafValues></_>
        <_>
          <internalNodes>
            0 -1 30 -4.6541242045350373e-004</internalNodes>
          <leafValues>
            -6.3654822111129761e-001 6.2186639755964279e-002</leafValues></_>
        <_>
          <internalNodes>
            0 -1 201 3.9597902446985245e-002</internalNodes>
          <leafValues>
            -8.4375672042369843e-002 5.4846936464309692e-001</leafValues></_>
        <_>
          <internalNodes>
            0 -1 215 5.7771117426455021e-003</internalNodes>
          <leafValues>
            -1.7119500041007996e-001 3.5574194788932800e-001</leafValues></_>
        <_>
          <internalNodes>
            0 -1 127 1.0837191948667169e-003</internalNodes>
          <leafValues>
            5.6520491838455200e-002 -8.9532315731048584e-001</leafValues></_>
        <_>
          <internalNodes>
            0 -1 93 -7.7523349318653345e-004</internalNodes>
          <leafValues>
            3.1747895479202271e-001 -1.4515987038612366e-001</leafValues></_>
        <_>
          <internalNodes>
            0 -1 94 9.3806098448112607e-004</internalNodes>
          <leafValues>
            -1.4336374402046204e-001 3.3810171484947205e-001</leafValues></_>
        <_>
          <internalNodes>
            0 -1 302 4.0874053956940770e-004</internalNodes>
          <leafValues>
            6.2042184174060822e-002 -7.1604382991790771e-001</leafValues></_>
        <_>
          <internalNodes>
            0 -1 289 -2.4652611464262009e-002</internalNodes>
          <leafValues>
            6.7920172214508057e-001 -7.4888095259666443e-002</leafValues></_>
        <_>
          <internalNodes>
            0 -1 237 -5.6116478517651558e-003</internalNodes>
          <leafValues>
            4.4767671823501587e-001 -1.0493759810924530e-001</leafValues></_>
        <_>
          <internalNodes>
            0 -1 316 2.2613220789935440e-004</internalNodes>
          <leafValues>
            5.6156732141971588e-002 -7.6928973197937012e-001</leafValues></_>
        <_>
          <internalNodes>
            0 -1 46 -1.0467430111020803e-003</internalNodes>
          <leafValues>
            -6.8688780069351196e-001 5.1901392638683319e-002</leafValues></_>
        <_>
          <internalNodes>
            0 -1 54 -1.5554437041282654e-001</internalNodes>
          <leafValues>
            -4.5531848073005676e-001 7.7626481652259827e-002</leafValues></_>
        <_>
          <internalNodes>
            0 -1 235 -8.8162198662757874e-003</internalNodes>
          <leafValues>
            2.7919837832450867e-001 -1.4555555582046509e-001</leafValues></_>
        <_>
          <internalNodes>
            0 -1 33 4.9502388574182987e-003</internalNodes>
          <leafValues>
            -1.3344788551330566e-001 4.1601178050041199e-001</leafValues></_>
        <_>
          <internalNodes>
            0 -1 76 -3.0247969552874565e-002</internalNodes>
          <leafValues>
            7.0483136177062988e-001 -4.8914726823568344e-002</leafValues></_>
        <_>
          <internalNodes>
            0 -1 38 -5.4336339235305786e-003</internalNodes>
          <leafValues>
            -6.3527178764343262e-001 7.2560839354991913e-002</leafValues></_>
        <_>
          <internalNodes>
            0 -1 105 3.6926381289958954e-003</internalNodes>
          <leafValues>
            -1.1830457299947739e-001 3.3868041634559631e-001</leafValues></_>
        <_>
          <internalNodes>
            0 -1 27 -2.1586846560239792e-002</internalNodes>
          <leafValues>
            4.9818474054336548e-001 -7.3511250317096710e-002</leafValues></_>
        <_>
          <internalNodes>
            0 -1 269 -3.8382229395210743e-003</internalNodes>
          <leafValues>
            4.5095440745353699e-001 -1.0165100544691086e-001</leafValues></_></weakClassifiers></_>
    <!-- stage 18 -->
    <_>
      <maxWeakCount>21</maxWeakCount>
      <stageThreshold>-5.0151389837265015e-001</stageThreshold>
      <weakClassifiers>
        <_>
          <internalNodes>
            0 -1 321 4.0405441541224718e-004</internalNodes>
          <leafValues>
            4.1759091615676880e-001 -4.8768472671508789e-001</leafValues></_>
        <_>
          <internalNodes>
            0 -1 300 1.4858073554933071e-003</internalNodes>
          <leafValues>
            -8.1563189625740051e-002 4.6157106757164001e-001</leafValues></_>
        <_>
          <internalNodes>
            0 -1 143 -1.8183156847953796e-002</internalNodes>
          <leafValues>
            4.0336844325065613e-001 -1.5118664503097534e-001</leafValues></_>
        <_>
          <internalNodes>
            0 -1 160 3.8003794848918915e-002</internalNodes>
          <leafValues>
            -2.0352961122989655e-001 3.4165698289871216e-001</leafValues></_>
        <_>
          <internalNodes>
            0 -1 306 4.0577356703579426e-003</internalNodes>
          <leafValues>
            -1.0907904803752899e-001 5.6397664546966553e-001</leafValues></_>
        <_>
          <internalNodes>
            0 -1 5 -3.5701416432857513e-002</internalNodes>
          <leafValues>
            2.7405199408531189e-001 -1.9041673839092255e-001</leafValues></_>
        <_>
          <internalNodes>
            0 -1 61 1.1929490137845278e-003</internalNodes>
          <leafValues>
            -1.5645225346088409e-001 3.5667559504508972e-001</leafValues></_>
        <_>
          <internalNodes>
            0 -1 206 2.4681149050593376e-002</internalNodes>
          <leafValues>
            -6.5666757524013519e-002 5.5020225048065186e-001</leafValues></_>
        <_>
          <internalNodes>
            0 -1 243 1.4879099326208234e-003</internalNodes>
          <leafValues>
            -1.1900289356708527e-001 3.8966435194015503e-001</leafValues></_>
        <_>
          <internalNodes>
            0 -1 66 -1.4637344283983111e-003</internalNodes>
          <leafValues>
            -7.4146378040313721e-001 7.0890970528125763e-002</leafValues></_>
        <_>
          <internalNodes>
            0 -1 45 7.9968079924583435e-002</internalNodes>
          <leafValues>
            1.0661738365888596e-001 -4.1482296586036682e-001</leafValues></_>
        <_>
          <internalNodes>
            0 -1 159 4.0750319021753967e-004</internalNodes>
          <leafValues>
            4.3871797621250153e-002 -8.2040745019912720e-001</leafValues></_>
        <_>
          <internalNodes>
            0 -1 170 3.8742311298847198e-003</internalNodes>
          <leafValues>
            6.3830673694610596e-002 -6.1072844266891479e-001</leafValues></_>
        <_>
          <internalNodes>
            0 -1 238 1.3009654358029366e-002</internalNodes>
          <leafValues>
            -1.0468284785747528e-001 4.5764648914337158e-001</leafValues></_>
        <_>
          <internalNodes>
            0 -1 273 2.5441364850848913e-003</internalNodes>
          <leafValues>
            -1.2588033080101013e-001 3.6503949761390686e-001</leafValues></_>
        <_>
          <internalNodes>
            0 -1 147 -6.5821376629173756e-003</internalNodes>
          <leafValues>
            4.4134780764579773e-001 -1.0814943909645081e-001</leafValues></_>
        <_>
          <internalNodes>
            0 -1 128 -3.6882683634757996e-002</internalNodes>
          <leafValues>
            4.3390744924545288e-001 -1.0455100983381271e-001</leafValues></_>
        <_>
          <internalNodes>
            0 -1 144 1.2158885598182678e-002</internalNodes>
          <leafValues>
            -9.7219802439212799e-002 4.7284644842147827e-001</leafValues></_>
        <_>
          <internalNodes>
            0 -1 36 -3.2679005526006222e-003</internalNodes>
          <leafValues>
            -5.4557311534881592e-001 8.4668308496475220e-002</leafValues></_>
        <_>
          <internalNodes>
            0 -1 124 -2.7044408489018679e-004</internalNodes>
          <leafValues>
            2.8244715929031372e-001 -1.5273743867874146e-001</leafValues></_>
        <_>
          <internalNodes>
            0 -1 175 -2.1606907248497009e-002</internalNodes>
          <leafValues>
            4.8726338148117065e-001 -9.0439148247241974e-002</leafValues></_></weakClassifiers></_>
    <!-- stage 19 -->
    <_>
      <maxWeakCount>27</maxWeakCount>
      <stageThreshold>-4.8469892144203186e-001</stageThreshold>
      <weakClassifiers>
        <_>
          <internalNodes>
            0 -1 41 1.1510174954310060e-003</internalNodes>
          <leafValues>
            4.2499318718910217e-001 -2.5490197539329529e-001</leafValues></_>
        <_>
          <internalNodes>
            0 -1 102 -1.1303955689072609e-003</internalNodes>
          <leafValues>
            3.2728952169418335e-001 -1.1102202534675598e-001</leafValues></_>
        <_>
          <internalNodes>
            0 -1 95 1.0764801874756813e-002</internalNodes>
          <leafValues>
            -9.2746607959270477e-002 4.8929917812347412e-001</leafValues></_>
        <_>
          <internalNodes>
            0 -1 279 5.3345993161201477e-002</internalNodes>
          <leafValues>
            -1.0933272540569305e-001 3.6660519242286682e-001</leafValues></_>
        <_>
          <internalNodes>
            0 -1 227 2.5881340727210045e-002</internalNodes>
          <leafValues>
            -1.3358113169670105e-001 3.6529371142387390e-001</leafValues></_>
        <_>
          <internalNodes>
            0 -1 246 -1.7361376434564590e-002</internalNodes>
          <leafValues>
            5.1447886228561401e-001 -1.0705302655696869e-001</leafValues></_>
        <_>
          <internalNodes>
            0 -1 189 -1.7387766856700182e-003</internalNodes>
          <leafValues>
            -6.9505000114440918e-001 6.9598466157913208e-002</leafValues></_>
        <_>
          <internalNodes>
            0 -1 275 1.7408385872840881e-002</internalNodes>
          <leafValues>
            -7.8906863927841187e-002 5.4240238666534424e-001</leafValues></_>
        <_>
          <internalNodes>
            0 -1 178 -1.1294572323095053e-004</internalNodes>
          <leafValues>
            -6.2653923034667969e-001 7.4010811746120453e-002</leafValues></_>
        <_>
          <internalNodes>
            0 -1 249 -9.3943221145309508e-005</internalNodes>
          <leafValues>
            -5.4417973756790161e-001 6.1866115778684616e-002</leafValues></_>
        <_>
          <internalNodes>
            0 -1 107 8.2383374683558941e-004</internalNodes>
          <leafValues>
            6.4962230622768402e-002 -5.7024401426315308e-001</leafValues></_>
        <_>
          <internalNodes>
            0 -1 39 3.9686127565801144e-003</internalNodes>
          <leafValues>
            -1.0071690380573273e-001 3.9319273829460144e-001</leafValues></_>
        <_>
          <internalNodes>
            0 -1 89 -1.9893461838364601e-002</internalNodes>
          <leafValues>
            5.7270824909210205e-001 -8.0666683614253998e-002</leafValues></_>
        <_>
          <internalNodes>
            0 -1 72 1.6179447993636131e-003</internalNodes>
          <leafValues>
            -1.0677493363618851e-001 3.2846453785896301e-001</leafValues></_>
        <_>
          <internalNodes>
            0 -1 84 6.5887550590559840e-004</internalNodes>
          <leafValues>
            -1.4816971123218536e-001 2.8197833895683289e-001</leafValues></_>
        <_>
          <internalNodes>
            0 -1 81 -6.5257534151896834e-004</internalNodes>
          <leafValues>
            3.8680386543273926e-001 -1.1069259047508240e-001</leafValues></_>
        <_>
          <internalNodes>
            0 -1 212 7.3988917283713818e-003</internalNodes>
          <leafValues>
            -1.2136944383382797e-001 3.4037977457046509e-001</leafValues></_>
        <_>
          <internalNodes>
            0 -1 209 -2.8831783682107925e-002</internalNodes>
          <leafValues>
            5.5921524763107300e-001 -6.8220905959606171e-002</leafValues></_>
        <_>
          <internalNodes>
            0 -1 320 -4.7896287287585437e-004</internalNodes>
          <leafValues>
            -7.9369789361953735e-001 5.6898362934589386e-002</leafValues></_>
        <_>
          <internalNodes>
            0 -1 90 -3.3877976238727570e-003</internalNodes>
          <leafValues>
            3.0818027257919312e-001 -1.2864464521408081e-001</leafValues></_>
        <_>
          <internalNodes>
            0 -1 110 2.7316301129758358e-003</internalNodes>
          <leafValues>
            6.3394524157047272e-002 -6.8626910448074341e-001</leafValues></_>
        <_>
          <internalNodes>
            0 -1 96 4.2128805071115494e-003</internalNodes>
          <leafValues>
            -1.2482784688472748e-001 3.4278869628906250e-001</leafValues></_>
        <_>
          <internalNodes>
            0 -1 51 3.3603303600102663e-003</internalNodes>
          <leafValues>
            -1.0779944807291031e-001 3.8999685645103455e-001</leafValues></_>
        <_>
          <internalNodes>
            0 -1 119 2.6744825765490532e-002</internalNodes>
          <leafValues>
            -8.6953237652778625e-002 4.5357045531272888e-001</leafValues></_>
        <_>
          <internalNodes>
            0 -1 313 -8.7029940914362669e-004</internalNodes>
          <leafValues>
            -7.5993651151657104e-001 5.6386899203062057e-002</leafValues></_>
        <_>
          <internalNodes>
            0 -1 186 9.7926193848252296e-003</internalNodes>
          <leafValues>
            -1.1397519707679749e-001 3.5342752933502197e-001</leafValues></_>
        <_>
          <internalNodes>
            0 -1 31 1.6539519128855318e-004</internalNodes>
          <leafValues>
            7.5769558548927307e-002 -5.2337163686752319e-001</leafValues></_></weakClassifiers></_></stages>
  <features>
    <_>
      <rects>
        <_>
          0 0 2 2 -1.</_>
        <_>
          0 0 1 1 2.</_>
        <_>
          1 1 1 1 2.</_></rects>
      <tilted>0</tilted></_>
    <_>
      <rects>
        <_>
          0 0 8 12 -1.</_>
        <_>
          0 0 4 6 2.</_>
        <_>
          4 6 4 6 2.</_></rects>
      <tilted>0</tilted></_>
    <_>
      <rects>
        <_>
          0 0 36 1 -1.</_>
        <_>
          9 0 18 1 2.</_></rects>
      <tilted>0</tilted></_>
    <_>
      <rects>
        <_>
          0 0 36 37 -1.</_>
        <_>
          18 0 18 37 2.</_></rects>
      <tilted>0</tilted></_>
    <_>
      <rects>
        <_>
          0 0 30 8 -1.</_>
        <_>
          0 4 30 4 2.</_></rects>
      <tilted>0</tilted></_>
    <_>
      <rects>
        <_>
          0 1 8 35 -1.</_>
        <_>
          4 1 4 35 2.</_></rects>
      <tilted>0</tilted></_>
    <_>
      <rects>
        <_>
          0 3 1 4 -1.</_>
        <_>
          0 4 1 2 2.</_></rects>
      <tilted>0</tilted></_>
    <_>
      <rects>
        <_>
          0 3 1 12 -1.</_>
        <_>
          0 6 1 6 2.</_></rects>
      <tilted>0</tilted></_>
    <_>
      <rects>
        <_>
          0 3 8 28 -1.</_>
        <_>
          4 3 4 28 2.</_></rects>
      <tilted>0</tilted></_>
    <_>
      <rects>
        <_>
          0 3 8 30 -1.</_>
        <_>
          4 3 4 30 2.</_></rects>
      <tilted>0</tilted></_>
    <_>
      <rects>
        <_>
          0 3 35 34 -1.</_>
        <_>
          0 20 35 17 2.</_></rects>
      <tilted>0</tilted></_>
    <_>
      <rects>
        <_>
          0 4 1 3 -1.</_>
        <_>
          0 5 1 1 3.</_></rects>
      <tilted>0</tilted></_>
    <_>
      <rects>
        <_>
          0 4 1 32 -1.</_>
        <_>
          0 20 1 16 2.</_></rects>
      <tilted>0</tilted></_>
    <_>
      <rects>
        <_>
          0 5 6 28 -1.</_>
        <_>
          3 5 3 28 2.</_></rects>
      <tilted>0</tilted></_>
    <_>
      <rects>
        <_>
          0 5 6 31 -1.</_>
        <_>
          3 5 3 31 2.</_></rects>
      <tilted>0</tilted></_>
    <_>
      <rects>
        <_>
          0 5 8 27 -1.</_>
        <_>
          4 5 4 27 2.</_></rects>
      <tilted>0</tilted></_>
    <_>
      <rects>
        <_>
          0 6 1 3 -1.</_>
        <_>
          0 7 1 1 3.</_></rects>
      <tilted>0</tilted></_>
    <_>
      <rects>
        <_>
          0 6 1 6 -1.</_>
        <_>
          0 8 1 2 3.</_></rects>
      <tilted>0</tilted></_>
    <_>
      <rects>
        <_>
          0 6 8 31 -1.</_>
        <_>
          4 6 4 31 2.</_></rects>
      <tilted>0</tilted></_>
    <_>
      <rects>
        <_>
          0 7 1 3 -1.</_>
        <_>
          0 8 1 1 3.</_></rects>
      <tilted>0</tilted></_>
    <_>
      <rects>
        <_>
          0 8 1 3 -1.</_>
        <_>
          0 9 1 1 3.</_></rects>
      <tilted>0</tilted></_>
    <_>
      <rects>
        <_>
          0 9 1 3 -1.</_>
        <_>
          0 10 1 1 3.</_></rects>
      <tilted>0</tilted></_>
    <_>
      <rects>
        <_>
          0 10 1 3 -1.</_>
        <_>
          0 11 1 1 3.</_></rects>
      <tilted>0</tilted></_>
    <_>
      <rects>
        <_>
          0 12 1 6 -1.</_>
        <_>
          0 14 1 2 3.</_></rects>
      <tilted>0</tilted></_>
    <_>
      <rects>
        <_>
          0 13 1 3 -1.</_>
        <_>
          0 14 1 1 3.</_></rects>
      <tilted>0</tilted></_>
    <_>
      <rects>
        <_>
          0 15 1 3 -1.</_>
        <_>
          0 16 1 1 3.</_></rects>
      <tilted>0</tilted></_>
    <_>
      <rects>
        <_>
          0 19 1 3 -1.</_>
        <_>
          0 20 1 1 3.</_></rects>
      <tilted>0</tilted></_>
    <_>
      <rects>
        <_>
          0 24 8 6 -1.</_>
        <_>
          4 24 4 6 2.</_></rects>
      <tilted>0</tilted></_>
    <_>
      <rects>
        <_>
          0 25 12 7 -1.</_>
        <_>
          3 25 6 7 2.</_></rects>
      <tilted>0</tilted></_>
    <_>
      <rects>
        <_>
          0 29 1 3 -1.</_>
        <_>
          0 30 1 1 3.</_></rects>
      <tilted>0</tilted></_>
    <_>
      <rects>
        <_>
          0 32 2 3 -1.</_>
        <_>
          0 33 2 1 3.</_></rects>
      <tilted>0</tilted></_>
    <_>
      <rects>
        <_>
          1 0 1 3 -1.</_>
        <_>
          1 1 1 1 3.</_></rects>
      <tilted>0</tilted></_>
    <_>
      <rects>
        <_>
          1 0 34 37 -1.</_>
        <_>
          18 0 17 37 2.</_></rects>
      <tilted>0</tilted></_>
    <_>
      <rects>
        <_>
          1 1 6 10 -1.</_>
        <_>
          1 1 3 5 2.</_>
        <_>
          4 6 3 5 2.</_></rects>
      <tilted>0</tilted></_>
    <_>
      <rects>
        <_>
          1 5 4 16 -1.</_>
        <_>
          3 5 2 16 2.</_></rects>
      <tilted>0</tilted></_>
    <_>
      <rects>
        <_>
          1 6 2 28 -1.</_>
        <_>
          2 6 1 28 2.</_></rects>
      <tilted>0</tilted></_>
    <_>
      <rects>
        <_>
          2 0 24 1 -1.</_>
        <_>
          8 0 12 1 2.</_></rects>
      <tilted>0</tilted></_>
    <_>
      <rects>
        <_>
          2 0 29 36 -1.</_>
        <_>
          2 18 29 18 2.</_></rects>
      <tilted>0</tilted></_>
    <_>
      <rects>
        <_>
          2 1 24 1 -1.</_>
        <_>
          8 1 12 1 2.</_></rects>
      <tilted>0</tilted></_>
    <_>
      <rects>
        <_>
          2 3 2 21 -1.</_>
        <_>
          3 3 1 21 2.</_></rects>
      <tilted>0</tilted></_>
    <_>
      <rects>
        <_>
          2 3 4 12 -1.</_>
        <_>
          4 3 2 12 2.</_></rects>
      <tilted>0</tilted></_>
    <_>
      <rects>
        <_>
          2 36 8 1 -1.</_>
        <_>
          4 36 4 1 2.</_></rects>
      <tilted>0</tilted></_>
    <_>
      <rects>
        <_>
          2 36 15 1 -1.</_>
        <_>
          7 36 5 1 3.</_></rects>
      <tilted>0</tilted></_>
    <_>
      <rects>
        <_>
          3 0 3 1 -1.</_>
        <_>
          4 0 1 1 3.</_></rects>
      <tilted>0</tilted></_>
    <_>
      <rects>
        <_>
          3 0 21 1 -1.</_>
        <_>
          10 0 7 1 3.</_></rects>
      <tilted>0</tilted></_>
    <_>
      <rects>
        <_>
          3 0 16 36 -1.</_>
        <_>
          3 18 16 18 2.</_></rects>
      <tilted>0</tilted></_>
    <_>
      <rects>
        <_>
          3 1 6 1 -1.</_>
        <_>
          5 1 2 1 3.</_></rects>
      <tilted>0</tilted></_>
    <_>
      <rects>
        <_>
          3 3 2 17 -1.</_>
        <_>
          4 3 1 17 2.</_></rects>
      <tilted>0</tilted></_>
    <_>
      <rects>
        <_>
          3 6 4 14 -1.</_>
        <_>
          5 6 2 14 2.</_></rects>
      <tilted>0</tilted></_>
    <_>
      <rects>
        <_>
          3 12 2 1 -1.</_>
        <_>
          4 12 1 1 2.</_></rects>
      <tilted>0</tilted></_>
    <_>
      <rects>
        <_>
          3 21 12 7 -1.</_>
        <_>
          7 21 4 7 3.</_></rects>
      <tilted>0</tilted></_>
    <_>
      <rects>
        <_>
          3 27 8 2 -1.</_>
        <_>
          3 27 8 1 2.</_></rects>
      <tilted>1</tilted></_>
    <_>
      <rects>
        <_>
          3 29 30 8 -1.</_>
        <_>
          3 33 30 4 2.</_></rects>
      <tilted>0</tilted></_>
    <_>
      <rects>
        <_>
          4 0 3 1 -1.</_>
        <_>
          5 0 1 1 3.</_></rects>
      <tilted>0</tilted></_>
    <_>
      <rects>
        <_>
          4 0 28 27 -1.</_>
        <_>
          18 0 14 27 2.</_></rects>
      <tilted>0</tilted></_>
    <_>
      <rects>
        <_>
          4 1 13 36 -1.</_>
        <_>
          4 19 13 18 2.</_></rects>
      <tilted>0</tilted></_>
    <_>
      <rects>
        <_>
          4 1 30 4 -1.</_>
        <_>
          4 3 30 2 2.</_></rects>
      <tilted>0</tilted></_>
    <_>
      <rects>
        <_>
          4 1 30 6 -1.</_>
        <_>
          4 4 30 3 2.</_></rects>
      <tilted>0</tilted></_>
    <_>
      <rects>
        <_>
          4 4 31 2 -1.</_>
        <_>
          4 5 31 1 2.</_></rects>
      <tilted>0</tilted></_>
    <_>
      <rects>
        <_>
          4 7 2 13 -1.</_>
        <_>
          5 7 1 13 2.</_></rects>
      <tilted>0</tilted></_>
    <_>
      <rects>
        <_>
          4 21 28 8 -1.</_>
        <_>
          4 23 28 4 2.</_></rects>
      <tilted>0</tilted></_>
    <_>
      <rects>
        <_>
          4 23 2 10 -1.</_>
        <_>
          5 23 1 10 2.</_></rects>
      <tilted>0</tilted></_>
    <_>
      <rects>
        <_>
          4 25 8 4 -1.</_>
        <_>
          4 25 8 2 2.</_></rects>
      <tilted>1</tilted></_>
    <_>
      <rects>
        <_>
          4 31 21 6 -1.</_>
        <_>
          4 34 21 3 2.</_></rects>
      <tilted>0</tilted></_>
    <_>
      <rects>
        <_>
          4 33 23 4 -1.</_>
        <_>
          4 35 23 2 2.</_></rects>
      <tilted>0</tilted></_>
    <_>
      <rects>
        <_>
          5 0 3 1 -1.</_>
        <_>
          6 0 1 1 3.</_></rects>
      <tilted>0</tilted></_>
    <_>
      <rects>
        <_>
          5 0 2 3 -1.</_>
        <_>
          4 1 2 1 3.</_></rects>
      <tilted>1</tilted></_>
    <_>
      <rects>
        <_>
          5 1 30 6 -1.</_>
        <_>
          5 4 30 3 2.</_></rects>
      <tilted>0</tilted></_>
    <_>
      <rects>
        <_>
          5 4 2 32 -1.</_>
        <_>
          6 4 1 32 2.</_></rects>
      <tilted>0</tilted></_>
    <_>
      <rects>
        <_>
          5 5 2 29 -1.</_>
        <_>
          6 5 1 29 2.</_></rects>
      <tilted>0</tilted></_>
    <_>
      <rects>
        <_>
          5 8 8 8 -1.</_>
        <_>
          7 8 4 8 2.</_></rects>
      <tilted>0</tilted></_>
    <_>
      <rects>
        <_>
          5 23 4 7 -1.</_>
        <_>
          7 23 2 7 2.</_></rects>
      <tilted>0</tilted></_>
    <_>
      <rects>
        <_>
          5 26 3 6 -1.</_>
        <_>
          5 29 3 3 2.</_></rects>
      <tilted>0</tilted></_>
    <_>
      <rects>
        <_>
          5 30 27 6 -1.</_>
        <_>
          5 32 27 2 3.</_></rects>
      <tilted>0</tilted></_>
    <_>
      <rects>
        <_>
          6 0 4 6 -1.</_>
        <_>
          6 0 2 6 2.</_></rects>
      <tilted>1</tilted></_>
    <_>
      <rects>
        <_>
          6 2 8 5 -1.</_>
        <_>
          8 4 4 5 2.</_></rects>
      <tilted>1</tilted></_>
    <_>
      <rects>
        <_>
          6 2 9 3 -1.</_>
        <_>
          9 5 3 3 3.</_></rects>
      <tilted>1</tilted></_>
    <_>
      <rects>
        <_>
          6 5 4 10 -1.</_>
        <_>
          8 5 2 10 2.</_></rects>
      <tilted>0</tilted></_>
    <_>
      <rects>
        <_>
          6 6 2 13 -1.</_>
        <_>
          7 6 1 13 2.</_></rects>
      <tilted>0</tilted></_>
    <_>
      <rects>
        <_>
          6 13 8 14 -1.</_>
        <_>
          6 13 4 7 2.</_>
        <_>
          10 20 4 7 2.</_></rects>
      <tilted>0</tilted></_>
    <_>
      <rects>
        <_>
          6 15 12 5 -1.</_>
        <_>
          9 15 6 5 2.</_></rects>
      <tilted>0</tilted></_>
    <_>
      <rects>
        <_>
          6 22 2 1 -1.</_>
        <_>
          6 22 1 1 2.</_></rects>
      <tilted>1</tilted></_>
    <_>
      <rects>
        <_>
          6 28 12 5 -1.</_>
        <_>
          9 28 6 5 2.</_></rects>
      <tilted>0</tilted></_>
    <_>
      <rects>
        <_>
          6 30 22 6 -1.</_>
        <_>
          6 33 22 3 2.</_></rects>
      <tilted>0</tilted></_>
    <_>
      <rects>
        <_>
          6 33 6 2 -1.</_>
        <_>
          6 34 6 1 2.</_></rects>
      <tilted>0</tilted></_>
    <_>
      <rects>
        <_>
          6 33 7 4 -1.</_>
        <_>
          6 35 7 2 2.</_></rects>
      <tilted>0</tilted></_>
    <_>
      <rects>
        <_>
          6 34 27 2 -1.</_>
        <_>
          6 35 27 1 2.</_></rects>
      <tilted>0</tilted></_>
    <_>
      <rects>
        <_>
          6 36 28 1 -1.</_>
        <_>
          13 36 14 1 2.</_></rects>
      <tilted>0</tilted></_>
    <_>
      <rects>
        <_>
          7 0 26 8 -1.</_>
        <_>
          7 4 26 4 2.</_></rects>
      <tilted>0</tilted></_>
    <_>
      <rects>
        <_>
          7 2 6 7 -1.</_>
        <_>
          9 4 2 7 3.</_></rects>
      <tilted>1</tilted></_>
    <_>
      <rects>
        <_>
          7 3 2 31 -1.</_>
        <_>
          8 3 1 31 2.</_></rects>
      <tilted>0</tilted></_>
    <_>
      <rects>
        <_>
          7 3 6 5 -1.</_>
        <_>
          9 5 2 5 3.</_></rects>
      <tilted>1</tilted></_>
    <_>
      <rects>
        <_>
          7 6 9 2 -1.</_>
        <_>
          10 9 3 2 3.</_></rects>
      <tilted>1</tilted></_>
    <_>
      <rects>
        <_>
          7 8 2 6 -1.</_>
        <_>
          8 8 1 6 2.</_></rects>
      <tilted>0</tilted></_>
    <_>
      <rects>
        <_>
          7 9 2 8 -1.</_>
        <_>
          8 9 1 8 2.</_></rects>
      <tilted>0</tilted></_>
    <_>
      <rects>
        <_>
          7 16 9 3 -1.</_>
        <_>
          10 16 3 3 3.</_></rects>
      <tilted>0</tilted></_>
    <_>
      <rects>
        <_>
          7 23 4 7 -1.</_>
        <_>
          9 23 2 7 2.</_></rects>
      <tilted>0</tilted></_>
    <_>
      <rects>
        <_>
          7 34 12 2 -1.</_>
        <_>
          7 35 12 1 2.</_></rects>
      <tilted>0</tilted></_>
    <_>
      <rects>
        <_>
          8 0 4 8 -1.</_>
        <_>
          8 0 2 8 2.</_></rects>
      <tilted>1</tilted></_>
    <_>
      <rects>
        <_>
          8 2 25 8 -1.</_>
        <_>
          8 4 25 4 2.</_></rects>
      <tilted>0</tilted></_>
    <_>
      <rects>
        <_>
          8 5 9 28 -1.</_>
        <_>
          11 5 3 28 3.</_></rects>
      <tilted>0</tilted></_>
    <_>
      <rects>
        <_>
          8 6 8 15 -1.</_>
        <_>
          10 6 4 15 2.</_></rects>
      <tilted>0</tilted></_>
    <_>
      <rects>
        <_>
          8 9 2 10 -1.</_>
        <_>
          9 9 1 10 2.</_></rects>
      <tilted>0</tilted></_>
    <_>
      <rects>
        <_>
          8 12 8 12 -1.</_>
        <_>
          8 12 4 6 2.</_>
        <_>
          12 18 4 6 2.</_></rects>
      <tilted>0</tilted></_>
    <_>
      <rects>
        <_>
          8 23 26 13 -1.</_>
        <_>
          21 23 13 13 2.</_></rects>
      <tilted>0</tilted></_>
    <_>
      <rects>
        <_>
          8 29 6 8 -1.</_>
        <_>
          8 29 3 4 2.</_>
        <_>
          11 33 3 4 2.</_></rects>
      <tilted>0</tilted></_>
    <_>
      <rects>
        <_>
          8 32 9 4 -1.</_>
        <_>
          8 34 9 2 2.</_></rects>
      <tilted>0</tilted></_>
    <_>
      <rects>
        <_>
          8 36 6 1 -1.</_>
        <_>
          10 36 2 1 3.</_></rects>
      <tilted>0</tilted></_>
    <_>
      <rects>
        <_>
          9 0 3 1 -1.</_>
        <_>
          10 0 1 1 3.</_></rects>
      <tilted>0</tilted></_>
    <_>
      <rects>
        <_>
          9 0 4 1 -1.</_>
        <_>
          10 0 2 1 2.</_></rects>
      <tilted>0</tilted></_>
    <_>
      <rects>
        <_>
          9 0 12 1 -1.</_>
        <_>
          13 0 4 1 3.</_></rects>
      <tilted>0</tilted></_>
    <_>
      <rects>
        <_>
          9 1 25 2 -1.</_>
        <_>
          9 2 25 1 2.</_></rects>
      <tilted>0</tilted></_>
    <_>
      <rects>
        <_>
          9 2 9 16 -1.</_>
        <_>
          12 2 3 16 3.</_></rects>
      <tilted>0</tilted></_>
    <_>
      <rects>
        <_>
          9 4 2 6 -1.</_>
        <_>
          9 4 1 6 2.</_></rects>
      <tilted>1</tilted></_>
    <_>
      <rects>
        <_>
          9 4 9 3 -1.</_>
        <_>
          12 7 3 3 3.</_></rects>
      <tilted>1</tilted></_>
    <_>
      <rects>
        <_>
          9 5 8 29 -1.</_>
        <_>
          11 5 4 29 2.</_></rects>
      <tilted>0</tilted></_>
    <_>
      <rects>
        <_>
          9 6 2 17 -1.</_>
        <_>
          10 6 1 17 2.</_></rects>
      <tilted>0</tilted></_>
    <_>
      <rects>
        <_>
          9 7 3 8 -1.</_>
        <_>
          9 7 3 4 2.</_></rects>
      <tilted>1</tilted></_>
    <_>
      <rects>
        <_>
          9 10 2 11 -1.</_>
        <_>
          10 10 1 11 2.</_></rects>
      <tilted>0</tilted></_>
    <_>
      <rects>
        <_>
          9 16 18 3 -1.</_>
        <_>
          15 16 6 3 3.</_></rects>
      <tilted>0</tilted></_>
    <_>
      <rects>
        <_>
          9 18 12 12 -1.</_>
        <_>
          13 18 4 12 3.</_></rects>
      <tilted>0</tilted></_>
    <_>
      <rects>
        <_>
          9 19 9 8 -1.</_>
        <_>
          7 21 9 4 2.</_></rects>
      <tilted>1</tilted></_>
    <_>
      <rects>
        <_>
          9 22 4 10 -1.</_>
        <_>
          11 22 2 10 2.</_></rects>
      <tilted>0</tilted></_>
    <_>
      <rects>
        <_>
          9 23 6 8 -1.</_>
        <_>
          7 25 6 4 2.</_></rects>
      <tilted>1</tilted></_>
    <_>
      <rects>
        <_>
          9 29 2 4 -1.</_>
        <_>
          10 29 1 4 2.</_></rects>
      <tilted>0</tilted></_>
    <_>
      <rects>
        <_>
          9 32 5 2 -1.</_>
        <_>
          9 33 5 1 2.</_></rects>
      <tilted>0</tilted></_>
    <_>
      <rects>
        <_>
          10 0 3 1 -1.</_>
        <_>
          11 0 1 1 3.</_></rects>
      <tilted>0</tilted></_>
    <_>
      <rects>
        <_>
          10 0 6 1 -1.</_>
        <_>
          12 0 2 1 3.</_></rects>
      <tilted>0</tilted></_>
    <_>
      <rects>
        <_>
          10 0 12 18 -1.</_>
        <_>
          13 0 6 18 2.</_></rects>
      <tilted>0</tilted></_>
    <_>
      <rects>
        <_>
          10 0 24 1 -1.</_>
        <_>
          16 0 12 1 2.</_></rects>
      <tilted>0</tilted></_>
    <_>
      <rects>
        <_>
          10 6 18 3 -1.</_>
        <_>
          16 6 6 3 3.</_></rects>
      <tilted>0</tilted></_>
    <_>
      <rects>
        <_>
          10 8 4 10 -1.</_>
        <_>
          12 8 2 10 2.</_></rects>
      <tilted>0</tilted></_>
    <_>
      <rects>
        <_>
          10 10 20 6 -1.</_>
        <_>
          8 12 20 2 3.</_></rects>
      <tilted>1</tilted></_>
    <_>
      <rects>
        <_>
          10 14 6 10 -1.</_>
        <_>
          10 14 3 5 2.</_>
        <_>
          13 19 3 5 2.</_></rects>
      <tilted>0</tilted></_>
    <_>
      <rects>
        <_>
          10 19 12 11 -1.</_>
        <_>
          13 19 6 11 2.</_></rects>
      <tilted>0</tilted></_>
    <_>
      <rects>
        <_>
          10 23 4 6 -1.</_>
        <_>
          12 23 2 6 2.</_></rects>
      <tilted>0</tilted></_>
    <_>
      <rects>
        <_>
          10 24 5 8 -1.</_>
        <_>
          8 26 5 4 2.</_></rects>
      <tilted>1</tilted></_>
    <_>
      <rects>
        <_>
          10 25 6 12 -1.</_>
        <_>
          10 25 3 6 2.</_>
        <_>
          13 31 3 6 2.</_></rects>
      <tilted>0</tilted></_>
    <_>
      <rects>
        <_>
          10 36 6 1 -1.</_>
        <_>
          12 36 2 1 3.</_></rects>
      <tilted>0</tilted></_>
    <_>
      <rects>
        <_>
          11 0 6 14 -1.</_>
        <_>
          11 0 3 7 2.</_>
        <_>
          14 7 3 7 2.</_></rects>
      <tilted>0</tilted></_>
    <_>
      <rects>
        <_>
          11 1 3 1 -1.</_>
        <_>
          12 1 1 1 3.</_></rects>
      <tilted>0</tilted></_>
    <_>
      <rects>
        <_>
          11 1 25 36 -1.</_>
        <_>
          11 19 25 18 2.</_></rects>
      <tilted>0</tilted></_>
    <_>
      <rects>
        <_>
          11 3 15 32 -1.</_>
        <_>
          16 3 5 32 3.</_></rects>
      <tilted>0</tilted></_>
    <_>
      <rects>
        <_>
          11 4 15 5 -1.</_>
        <_>
          16 4 5 5 3.</_></rects>
      <tilted>0</tilted></_>
    <_>
      <rects>
        <_>
          11 7 8 8 -1.</_>
        <_>
          13 7 4 8 2.</_></rects>
      <tilted>0</tilted></_>
    <_>
      <rects>
        <_>
          11 8 8 13 -1.</_>
        <_>
          15 8 4 13 2.</_></rects>
      <tilted>0</tilted></_>
    <_>
      <rects>
        <_>
          11 12 23 20 -1.</_>
        <_>
          11 22 23 10 2.</_></rects>
      <tilted>0</tilted></_>
    <_>
      <rects>
        <_>
          11 15 6 10 -1.</_>
        <_>
          11 15 3 5 2.</_>
        <_>
          14 20 3 5 2.</_></rects>
      <tilted>0</tilted></_>
    <_>
      <rects>
        <_>
          11 16 2 11 -1.</_>
        <_>
          12 16 1 11 2.</_></rects>
      <tilted>0</tilted></_>
    <_>
      <rects>
        <_>
          11 17 2 2 -1.</_>
        <_>
          12 17 1 2 2.</_></rects>
      <tilted>0</tilted></_>
    <_>
      <rects>
        <_>
          11 24 5 6 -1.</_>
        <_>
          9 26 5 2 3.</_></rects>
      <tilted>1</tilted></_>
    <_>
      <rects>
        <_>
          11 28 15 5 -1.</_>
        <_>
          16 28 5 5 3.</_></rects>
      <tilted>0</tilted></_>
    <_>
      <rects>
        <_>
          11 36 21 1 -1.</_>
        <_>
          18 36 7 1 3.</_></rects>
      <tilted>0</tilted></_>
    <_>
      <rects>
        <_>
          12 0 2 2 -1.</_>
        <_>
          12 0 1 1 2.</_>
        <_>
          13 1 1 1 2.</_></rects>
      <tilted>0</tilted></_>
    <_>
      <rects>
        <_>
          12 0 6 1 -1.</_>
        <_>
          14 0 2 1 3.</_></rects>
      <tilted>0</tilted></_>
    <_>
      <rects>
        <_>
          12 3 9 30 -1.</_>
        <_>
          15 3 3 30 3.</_></rects>
      <tilted>0</tilted></_>
    <_>
      <rects>
        <_>
          12 5 12 11 -1.</_>
        <_>
          16 5 4 11 3.</_></rects>
      <tilted>0</tilted></_>
    <_>
      <rects>
        <_>
          12 6 12 24 -1.</_>
        <_>
          16 6 4 24 3.</_></rects>
      <tilted>0</tilted></_>
    <_>
      <rects>
        <_>
          12 8 12 26 -1.</_>
        <_>
          16 8 4 26 3.</_></rects>
      <tilted>0</tilted></_>
    <_>
      <rects>
        <_>
          12 36 4 1 -1.</_>
        <_>
          13 36 2 1 2.</_></rects>
      <tilted>0</tilted></_>
    <_>
      <rects>
        <_>
          13 1 12 34 -1.</_>
        <_>
          16 1 6 34 2.</_></rects>
      <tilted>0</tilted></_>
    <_>
      <rects>
        <_>
          13 3 12 30 -1.</_>
        <_>
          16 3 6 30 2.</_></rects>
      <tilted>0</tilted></_>
    <_>
      <rects>
        <_>
          13 8 8 3 -1.</_>
        <_>
          15 8 4 3 2.</_></rects>
      <tilted>0</tilted></_>
    <_>
      <rects>
        <_>
          13 9 9 9 -1.</_>
        <_>
          16 9 3 9 3.</_></rects>
      <tilted>0</tilted></_>
    <_>
      <rects>
        <_>
          13 24 6 6 -1.</_>
        <_>
          16 24 3 6 2.</_></rects>
      <tilted>0</tilted></_>
    <_>
      <rects>
        <_>
          13 28 12 5 -1.</_>
        <_>
          16 28 6 5 2.</_></rects>
      <tilted>0</tilted></_>
    <_>
      <rects>
        <_>
          13 36 6 1 -1.</_>
        <_>
          15 36 2 1 3.</_></rects>
      <tilted>0</tilted></_>
    <_>
      <rects>
        <_>
          14 0 3 1 -1.</_>
        <_>
          15 0 1 1 3.</_></rects>
      <tilted>0</tilted></_>
    <_>
      <rects>
        <_>
          14 0 6 3 -1.</_>
        <_>
          16 1 2 1 9.</_></rects>
      <tilted>0</tilted></_>
    <_>
      <rects>
        <_>
          14 10 9 5 -1.</_>
        <_>
          17 10 3 5 3.</_></rects>
      <tilted>0</tilted></_>
    <_>
      <rects>
        <_>
          14 34 6 3 -1.</_>
        <_>
          16 35 2 1 9.</_></rects>
      <tilted>0</tilted></_>
    <_>
      <rects>
        <_>
          15 0 9 1 -1.</_>
        <_>
          18 0 3 1 3.</_></rects>
      <tilted>0</tilted></_>
    <_>
      <rects>
        <_>
          15 1 2 32 -1.</_>
        <_>
          16 1 1 32 2.</_></rects>
      <tilted>0</tilted></_>
    <_>
      <rects>
        <_>
          15 1 15 11 -1.</_>
        <_>
          20 1 5 11 3.</_></rects>
      <tilted>0</tilted></_>
    <_>
      <rects>
        <_>
          15 6 6 22 -1.</_>
        <_>
          18 6 3 22 2.</_></rects>
      <tilted>0</tilted></_>
    <_>
      <rects>
        <_>
          15 11 8 12 -1.</_>
        <_>
          17 13 4 12 2.</_></rects>
      <tilted>1</tilted></_>
    <_>
      <rects>
        <_>
          15 12 8 17 -1.</_>
        <_>
          17 12 4 17 2.</_></rects>
      <tilted>0</tilted></_>
    <_>
      <rects>
        <_>
          15 21 2 11 -1.</_>
        <_>
          16 21 1 11 2.</_></rects>
      <tilted>0</tilted></_>
    <_>
      <rects>
        <_>
          16 0 2 2 -1.</_>
        <_>
          16 0 1 1 2.</_>
        <_>
          17 1 1 1 2.</_></rects>
      <tilted>0</tilted></_>
    <_>
      <rects>
        <_>
          16 0 6 12 -1.</_>
        <_>
          16 0 3 6 2.</_>
        <_>
          19 6 3 6 2.</_></rects>
      <tilted>0</tilted></_>
    <_>
      <rects>
        <_>
          16 1 20 11 -1.</_>
        <_>
          16 1 10 11 2.</_></rects>
      <tilted>1</tilted></_>
    <_>
      <rects>
        <_>
          16 2 4 29 -1.</_>
        <_>
          18 2 2 29 2.</_></rects>
      <tilted>0</tilted></_>
    <_>
      <rects>
        <_>
          16 4 2 23 -1.</_>
        <_>
          17 4 1 23 2.</_></rects>
      <tilted>0</tilted></_>
    <_>
      <rects>
        <_>
          16 19 9 10 -1.</_>
        <_>
          19 19 3 10 3.</_></rects>
      <tilted>0</tilted></_>
    <_>
      <rects>
        <_>
          17 0 3 1 -1.</_>
        <_>
          18 0 1 1 3.</_></rects>
      <tilted>0</tilted></_>
    <_>
      <rects>
        <_>
          17 0 3 2 -1.</_>
        <_>
          18 0 1 2 3.</_></rects>
      <tilted>0</tilted></_>
    <_>
      <rects>
        <_>
          17 5 8 5 -1.</_>
        <_>
          21 5 4 5 2.</_></rects>
      <tilted>0</tilted></_>
    <_>
